[
  {
    "type": "Convolution",
    "kernel": [
      [
        -0.017644258216023445,
        -0.6667103171348572,
        -0.45707571506500244
      ],
      [
        0.24707981944084167,
        0.0013614490162581205,
        -0.04659297689795494
      ],
      [
        0.3083454966545105,
        0.5586926341056824,
        0.015097792260348797
      ]
    ],
    "bias": -0.01040018443018198
  },
  {
    "type": "Convolution",
    "kernel": [
      [
        0.1662769913673401,
        0.11802320182323456,
        -0.1382492035627365
      ],
      [
        -0.05251583084464073,
        0.2827431857585907,
        0.09863787144422531
      ],
      [
        0.27684614062309265,
        -0.07259437441825867,
        0.1908930093050003
      ]
    ],
    "bias": -0.11258228868246078
  },
  {
    "type": "Convolution",
    "kernel": [
      [
        -0.1727825403213501,
        0.47819241881370544,
        -0.0011900061508640647
      ],
      [
        -0.6397049427032471,
        0.38645240664482117,
        0.48612454533576965
      ],
      [
        -0.7782788276672363,
        -0.17783065140247345,
        0.3398614823818207
      ]
    ],
    "bias": -0.024348724633455276
  },
  {
    "type": "Convolution",
    "kernel": [
      [
        0.017712892964482307,
        0.040706221014261246,
        0.269313246011734
      ],
      [
        0.09216635674238205,
        -0.26150456070899963,
        0.17311537265777588
      ],
      [
        -0.3813357651233673,
        0.11764141917228699,
        0.27412912249565125
      ]
    ],
    "bias": -0.07494620233774185
  },
  {
    "type": "Convolution",
    "kernel": [
      [
        0.11889376491308212,
        0.21485957503318787,
        -0.13537533581256866
      ],
      [
        0.3192666172981262,
        -0.2188957780599594,
        -0.41259345412254333
      ],
      [
        0.134238600730896,
        -0.08740103989839554,
        0.09952621906995773
      ]
    ],
    "bias": -0.013573657721281052
  },
  {
    "type": "Convolution",
    "kernel": [
      [
        -0.9980334639549255,
        -0.664617121219635,
        0.13786377012729645
      ],
      [
        -0.8283966183662415,
        0.030155427753925323,
        0.5333009362220764
      ],
      [
        -0.08105672150850296,
        0.4094637632369995,
        0.7448955178260803
      ]
    ],
    "bias": 0.0005385365802794695
  },
  {
    "type": "Convolution",
    "kernel": [
      [
        0.3197479546070099,
        0.48987606167793274,
        0.8436310887336731
      ],
      [
        -0.2621225118637085,
        0.4618226885795593,
        0.20928499102592468
      ],
      [
        -0.9840913414955139,
        -1.1812282800674438,
        -0.9410395622253418
      ]
    ],
    "bias": 0.08126755058765411
  },
  {
    "type": "Convolution",
    "kernel": [
      [
        -0.005750605370849371,
        -0.15133407711982727,
        0.1306876838207245
      ],
      [
        0.14171014726161957,
        -0.06252866238355637,
        0.018773993477225304
      ],
      [
        0.3083481788635254,
        0.27077868580818176,
        -0.083357073366642
      ]
    ],
    "bias": -0.07462096959352493
  },
  {
    "type": "Dense",
    "weights": [
      -0.043233875185251236,
      -0.028166400268673897,
      0.008764618076384068,
      -0.012585929594933987,
      0.005268259439617395,
      0.031049655750393867,
      0.054097745567560196,
      -0.030426032841205597,
      0.005338463466614485,
      -0.021460704505443573,
      0.061560310423374176,
      0.006227007135748863,
      0.04379207268357277,
      0.021873965859413147,
      0.0013559114886447787,
      0.007907162420451641,
      0.06875009089708328,
      -0.026645775884389877,
      0.0038489175494760275,
      0.03280693665146828,
      0.057338912039995193,
      0.05462532117962837,
      0.016053328290581703,
      -0.002561332890763879,
      0.09573013335466385,
      -0.011845579370856285,
      0.008360965177416801,
      0.0057985917665064335,
      0.03100552409887314,
      0.024899175390601158,
      0.06115531921386719,
      0.029520031064748764,
      -0.02069251425564289,
      -0.04775078594684601,
      -0.017064033076167107,
      -0.03220019116997719,
      0.02062668465077877,
      -0.03068903274834156,
      0.04007095471024513,
      -0.005479591432958841,
      -0.07735347747802734,
      -0.021915175020694733,
      0.03056882880628109,
      -0.03717299550771713,
      0.03820772096514702,
      0.050093743950128555,
      0.004531199112534523,
      -0.06412457674741745,
      0.001627641380764544,
      -0.0446048341691494,
      -0.08253633975982666,
      -0.013645053841173649,
      -0.05314720794558525,
      0.028322527185082436,
      0.04645282030105591,
      0.007555886171758175,
      -0.06607156246900558,
      -0.03404628112912178,
      -0.09315499663352966,
      -0.11321643739938736,
      -0.05347259342670441,
      -0.08175040036439896,
      0.04968397691845894,
      -0.011248748749494553,
      -0.1854325234889984,
      -0.12073811143636703,
      -0.16394130885601044,
      -0.13259713351726532,
      -0.05717955157160759,
      -0.10412181913852692,
      0.06759857386350632,
      -0.12141423672437668,
      -0.22331345081329346,
      -0.0974242314696312,
      -0.03483167290687561,
      -0.08052881807088852,
      -0.1472862809896469,
      -0.07263652235269547,
      0.021671267226338387,
      -0.1521831601858139,
      -0.13443197309970856,
      -0.02528240717947483,
      0.02586490474641323,
      -0.045733094215393066,
      -0.15913990139961243,
      -0.04492083191871643,
      0.049627285450696945,
      -0.10992411524057388,
      -0.06070978567004204,
      -0.08635126054286957,
      -0.10789843648672104,
      -0.13778866827487946,
      -0.18154996633529663,
      -0.16393418610095978,
      0.07050365209579468,
      -0.09589831531047821,
      -0.1469460427761078,
      -0.12379901111125946,
      -0.22235675156116486,
      -0.15432503819465637,
      -0.10181309282779694,
      -0.21055342257022858,
      0.03074185736477375,
      -0.06817115098237991,
      -0.2514972686767578,
      -0.1780398041009903,
      -0.14940017461776733,
      -0.21042102575302124,
      -0.1583527773618698,
      -0.2608177363872528,
      0.05648164823651314,
      -0.146776020526886,
      -0.3700866997241974,
      -0.08741834759712219,
      0.02546808496117592,
      -0.08278285712003708,
      -0.20344394445419312,
      -0.11487655341625214,
      0.08727210015058517,
      -0.19318817555904388,
      -0.2182721495628357,
      -0.08174119144678116,
      0.050222426652908325,
      -0.14809167385101318,
      -0.24089425802230835,
      -0.20251993834972382,
      0.1032758578658104,
      -0.21481797099113464,
      -0.21145358681678772,
      -0.1445120871067047,
      -0.14698681235313416,
      -0.12427331507205963,
      -0.08257321268320084,
      -0.2201252579689026,
      0.0469101220369339,
      -0.1564105898141861,
      -0.23410746455192566,
      -0.20154431462287903,
      -0.10960761457681656,
      -0.05394049361348152,
      -0.07616235315799713,
      -0.13013134896755219,
      0.04508316516876221,
      -0.16438758373260498,
      -0.20836617052555084,
      -0.1555180847644806,
      -0.08890371024608612,
      -0.08577181398868561,
      -0.14830100536346436,
      -0.08914453536272049,
      0.04471191018819809,
      -0.15344271063804626,
      -0.19420461356639862,
      -0.09819810837507248,
      -0.040757231414318085,
      -0.026981180533766747,
      -0.04803114011883736,
      -0.06357631087303162,
      0.017329122871160507,
      -0.06817653030157089,
      -0.23137088119983673,
      -0.06232648342847824,
      -0.002360985614359379,
      -0.04048397019505501,
      -0.06804748624563217,
      -0.02207832783460617,
      0.011393573135137558,
      -0.07105118036270142,
      -0.13497991859912872,
      -0.04514520615339279,
      -0.035354919731616974,
      -0.014999330043792725,
      -0.017847299575805664,
      0.02793251723051071,
      0.023975824937224388,
      -0.030092136934399605,
      -0.1008068323135376,
      -0.07909135520458221,
      0.01423705369234085,
      -0.010386338457465172,
      -0.010782945901155472,
      0.03556157276034355,
      0.0014546948950737715,
      -0.06510914117097855,
      -0.021124180406332016,
      -0.0663379356265068,
      -0.005974158179014921,
      -0.019516950473189354,
      0.021211495622992516,
      0.03340873122215271,
      0.06428302824497223,
      -0.06840662658214569,
      -0.015515938401222229,
      -0.00729049788787961,
      -0.03112667426466942,
      -0.004802838899195194,
      -0.011214353144168854,
      -0.00822856929153204,
      0.04467763751745224,
      -0.06478594243526459,
      -0.02779117226600647,
      -0.06051279976963997,
      -0.029027637094259262,
      0.019580837339162827,
      -0.008226641453802586,
      -0.0023524740245193243,
      0.02451869286596775,
      -0.03860416263341904,
      -0.03577352687716484,
      -0.011477340944111347,
      0.0053669242188334465,
      -0.004345109686255455,
      0.011945732869207859,
      0.04422523453831673,
      0.02026478946208954,
      -0.02222435548901558,
      0.002757294801995158,
      0.035996127873659134,
      0.08636922389268875,
      0.04095342755317688,
      0.05987492948770523,
      0.04367463290691376,
      0.0483679436147213,
      -0.023384403437376022,
      0.10786909610033035,
      0.014114131219685078,
      0.005710269790142775,
      0.01794099248945713,
      0.022847939282655716,
      0.03917447850108147,
      0.06268459558486938,
      0.03166617825627327,
      0.06072158366441727,
      0.022896215319633484,
      -0.029229316860437393,
      -0.08090677112340927,
      0.014439065009355545,
      -0.010151428170502186,
      0.030794665217399597,
      0.029999269172549248,
      -0.04406658560037613,
      -0.10773282498121262,
      -0.10541041940450668,
      -0.05522817373275757,
      -0.06174478679895401,
      -0.08102160692214966,
      0.050065167248249054,
      -0.052757903933525085,
      -0.1183023676276207,
      -0.12678226828575134,
      -0.10296417027711868,
      -0.10598251968622208,
      -0.1239580437541008,
      -0.10230595618486404,
      0.04393400251865387,
      -0.05873088911175728,
      -0.19348183274269104,
      -0.051345955580472946,
      -0.054941121488809586,
      -0.1384688764810562,
      -0.07064109295606613,
      -0.10450142621994019,
      0.07498996704816818,
      -0.11558584123849869,
      -0.1215817853808403,
      -0.13157984614372253,
      -0.1348627209663391,
      -0.10198548436164856,
      -0.10885749757289886,
      -0.12832432985305786,
      0.008249958045780659,
      -0.10407622158527374,
      -0.11420495808124542,
      -0.06878506392240524,
      0.013011004775762558,
      -0.0218442901968956,
      -0.029120903462171555,
      -0.0628902018070221,
      0.03456127643585205,
      -0.09766042977571487,
      -0.05200742557644844,
      -0.09264110028743744,
      -0.13349615037441254,
      0.004541081842035055,
      -0.01602351851761341,
      -0.012139856815338135,
      0.09235545992851257,
      -0.07588557153940201,
      -0.029191434383392334,
      -0.059838470071554184,
      -0.09899313002824783,
      -0.058552954345941544,
      -0.0273691788315773,
      -0.047251276671886444,
      0.06493236124515533,
      -0.04364043474197388,
      -0.0915699154138565,
      -0.02538277581334114,
      -0.0876346305012703,
      -0.07919875532388687,
      0.028560809791088104,
      -0.0014153470983728766,
      0.09417054057121277,
      -0.06875286251306534,
      -0.04200025647878647,
      -0.04702724516391754,
      -0.11889492720365524,
      -0.07837125658988953,
      0.002073341980576515,
      -0.022676857188344002,
      0.09443111717700958,
      -0.0282139852643013,
      -0.0033025529701262712,
      -0.11048869788646698,
      -0.14234372973442078,
      -0.03514215350151062,
      -0.017946826294064522,
      -0.06990440934896469,
      0.0781102403998375,
      -0.04789678752422333,
      -0.06087416782975197,
      -0.08033420890569687,
      -0.13889871537685394,
      -0.003810176393017173,
      -0.04909871146082878,
      -0.08147721737623215,
      0.10947172343730927,
      -0.02540770173072815,
      -0.0875517725944519,
      -0.10340463370084763,
      -0.026585061103105545,
      -0.053389497101306915,
      -0.0038846766110509634,
      -0.04801211506128311,
      0.09925146400928497,
      -0.05211387574672699,
      -0.09195869415998459,
      -0.10379484295845032,
      -0.19338154792785645,
      -0.12024153023958206,
      -0.042455803602933884,
      -0.10983486473560333,
      0.10760798305273056,
      -0.041944053024053574,
      -0.14896687865257263,
      -0.085067979991436,
      -0.13366959989070892,
      -0.12246356904506683,
      -0.06912510842084885,
      -0.07861408591270447,
      0.10718487948179245,
      -0.11033109575510025,
      -0.15085002779960632,
      -0.05785318836569786,
      -0.2150273472070694,
      -0.08049409836530685,
      -0.06710900366306305,
      -0.027482477948069572,
      0.06341996043920517,
      -0.1198403462767601,
      -0.050065916031599045,
      -0.14786995947360992,
      -0.10765001177787781,
      -0.12557357549667358,
      -0.10466324537992477,
      -0.10047530382871628,
      0.046095188707113266,
      -0.08855844289064407,
      -0.1439090520143509,
      -0.059890422970056534,
      0.01814056560397148,
      -0.11595699936151505,
      -0.07275961339473724,
      -0.15941041707992554,
      0.012674786150455475,
      -0.03424053266644478,
      -0.1859726756811142,
      -0.13353291153907776,
      0.002126428298652172,
      -0.0636298730969429,
      -0.08407600224018097,
      -0.05265820771455765,
      0.04163390398025513,
      -0.16469036042690277,
      -0.08310959488153458,
      -0.09946853667497635,
      -0.05311472341418266,
      -0.018766168504953384,
      -0.06757789105176926,
      -0.017405105754733086,
      0.04769989475607872,
      -0.10331155359745026,
      -0.016334835439920425,
      -0.07902520895004272,
      -0.05717799440026283,
      -0.009524252265691757,
      -0.0578356496989727,
      0.05070161819458008,
      0.0691184476017952,
      -0.014917293563485146,
      -0.011383673176169395,
      -0.03646140173077583,
      0.012480216100811958,
      -0.02511073648929596,
      -0.01820516213774681,
      0.0206623338162899,
      0.01856221631169319,
      -0.004033626057207584,
      0.06525713205337524,
      0.003784660017117858,
      0.008305715397000313,
      -0.0389559380710125,
      0.04882250726222992,
      0.024228839203715324,
      0.0010055005550384521,
      0.026939505711197853,
      -0.01631196029484272,
      -0.011333635076880455,
      0.0007264172891154885,
      0.010531491599977016,
      0.05605368688702583,
      0.04038604721426964,
      0.05934704467654228,
      -0.03021382912993431,
      -0.006714001763612032,
      -0.019760552793741226,
      0.09556020796298981,
      0.04500556364655495,
      -0.0021171739790588617,
      0.02852078527212143,
      0.04454701021313667,
      0.0009540989412926137,
      0.018633736297488213,
      -0.016488000750541687,
      0.04744374379515648,
      -0.06872924417257309,
      -0.012709937058389187,
      0.011515780352056026,
      0.035148218274116516,
      -0.017475010827183723,
      -0.050470225512981415,
      -0.11460825800895691,
      -0.1547841578722,
      -0.09014520794153214,
      -0.00510741351172328,
      -0.1099357157945633,
      0.025778373703360558,
      -0.09512322396039963,
      -0.21439982950687408,
      -0.10940555483102798,
      -0.12755295634269714,
      -0.113860584795475,
      -0.06435069441795349,
      -0.14835703372955322,
      0.0662362203001976,
      -0.16383172571659088,
      -0.1639464944601059,
      -0.1425727903842926,
      -0.15988391637802124,
      -0.10873483866453171,
      0.0018213640432804823,
      -0.09017074853181839,
      0.06817657500505447,
      -0.14703351259231567,
      -0.13401314616203308,
      -0.0829019844532013,
      -0.1187308132648468,
      -0.029600856825709343,
      0.004064180888235569,
      -0.05563120171427727,
      0.04708543419837952,
      -0.12223773449659348,
      -0.05870556831359863,
      -0.014638814143836498,
      -0.036035291850566864,
      -0.028916997835040092,
      0.01954110525548458,
      0.006672372575849295,
      0.08095328509807587,
      -0.10688351094722748,
      0.013813339173793793,
      -0.05153289809823036,
      -0.04917208105325699,
      0.0189784225076437,
      -0.022931968793272972,
      -0.005588274449110031,
      0.07285656780004501,
      -0.04601819068193436,
      0.01797730289399624,
      0.033507321029901505,
      -0.14528517425060272,
      -0.08767983317375183,
      -0.0022505815140902996,
      0.025219565257430077,
      0.05718756839632988,
      -0.02370442822575569,
      0.022952942177653313,
      -0.030605919659137726,
      -0.09073905646800995,
      -0.08478355407714844,
      -0.08058275282382965,
      -0.04809912294149399,
      0.08149373531341553,
      -0.011818289756774902,
      -0.03262178599834442,
      0.022160619497299194,
      -0.007612459361553192,
      -0.03556540235877037,
      0.004817386157810688,
      -0.01773936301469803,
      0.10311795026063919,
      0.006954425945878029,
      0.03617153689265251,
      -0.014048604294657707,
      -0.043257325887680054,
      -0.07238716632127762,
      -0.04783155769109726,
      -0.020092060789465904,
      0.05169571936130524,
      -0.0250263549387455,
      0.001943053095601499,
      3.577335155569017e-05,
      -0.0014223377220332623,
      -0.018117086961865425,
      -0.03537139669060707,
      -0.06650590896606445,
      0.027896542102098465,
      -0.02436774969100952,
      -0.012043609283864498,
      -0.10641852021217346,
      0.03429850563406944,
      -0.031782109290361404,
      -0.029245419427752495,
      -0.08237763494253159,
      0.06400838494300842,
      4.0083323256112635e-06,
      -0.07902226597070694,
      -0.07106523960828781,
      -0.009929494932293892,
      -0.010990585200488567,
      -0.03203726187348366,
      -0.013289154507219791,
      0.051672860980033875,
      -0.03999277576804161,
      -0.04736669734120369,
      -0.05834807828068733,
      -0.1132044866681099,
      -0.06391682475805283,
      -0.0083220349624753,
      -0.028852388262748718,
      0.03239839896559715,
      -0.02275707572698593,
      -0.0411209911108017,
      -0.04434829205274582,
      -0.13721933960914612,
      -0.10613477230072021,
      -0.03503193333745003,
      -0.05584803968667984,
      0.06563717126846313,
      -0.002717406954616308,
      -0.01013493537902832,
      -0.022538641467690468,
      -0.1508801430463791,
      -0.10294259339570999,
      -0.04801016300916672,
      -0.09331288188695908,
      0.050899688154459,
      -0.0316799096763134,
      -0.05526266619563103,
      -0.029371866956353188,
      -0.034748680889606476,
      -0.03471938148140907,
      -0.08320154994726181,
      -0.06447162479162216,
      0.059936102479696274,
      -0.041060734540224075,
      -0.07094363868236542,
      -0.04031503200531006,
      -0.06933411955833435,
      -0.022131429985165596,
      -0.030561162158846855,
      -0.03408277779817581,
      0.0503077507019043,
      -0.07699009776115417,
      -0.0004990281886421144,
      -0.052069179713726044,
      -0.09011701494455338,
      -0.09171674400568008,
      -0.11410409212112427,
      -0.002239703666418791,
      0.0182852353900671,
      -0.0552198700606823,
      -0.08339070528745651,
      -0.0561877004802227,
      -0.0489911288022995,
      -0.11098643392324448,
      -0.026540962979197502,
      -0.06907649338245392,
      0.01511002890765667,
      -0.03714555501937866,
      -0.08671686798334122,
      -0.055509645491838455,
      -0.025516750290989876,
      -0.1122901439666748,
      -0.12580950558185577,
      -0.07967932522296906,
      0.0032164857257157564,
      -0.11092711985111237,
      -0.14207826554775238,
      -0.05024638772010803,
      -0.04556458815932274,
      -0.031091365963220596,
      -0.031099282205104828,
      -0.004032096825540066,
      0.008061978965997696,
      -0.08023466169834137,
      -0.10007525235414505,
      -0.12838874757289886,
      -0.028476404026150703,
      -0.031301114708185196,
      -0.02905767410993576,
      -0.01385563611984253,
      0.03817244619131088,
      -0.1258993148803711,
      0.013745625503361225,
      -0.004401231650263071,
      -0.029036574065685272,
      0.013584333471953869,
      -0.011506862007081509,
      -0.02057739906013012,
      0.026731614023447037,
      -0.03867188096046448,
      -0.03660913184285164,
      0.014240503311157227,
      0.03947792574763298,
      0.06319807469844818,
      0.04183100163936615,
      0.034258391708135605,
      0.043378982692956924,
      0.010342673398554325,
      0.020328808575868607,
      -0.0904502421617508,
      -0.006755379494279623,
      -0.08588835597038269,
      0.038345497101545334,
      -0.014148415066301823,
      0.05974576994776726,
      -0.0701998919248581,
      -0.05475328490138054,
      -0.1724301427602768,
      -0.21805693209171295,
      -0.1616647094488144,
      -0.0529102087020874,
      -0.1305261254310608,
      0.028874745592474937,
      -0.13670380413532257,
      -0.18005499243736267,
      -0.06886013597249985,
      -0.11839783936738968,
      -0.10266175121068954,
      -0.053575437515974045,
      -0.08538172394037247,
      0.03206513077020645,
      -0.17159301042556763,
      -0.06322299689054489,
      -0.07797221094369888,
      -0.08667009323835373,
      -0.08832976222038269,
      -0.10831896215677261,
      -0.03589791804552078,
      0.0579584501683712,
      -0.10727237910032272,
      0.019524529576301575,
      -0.052387483417987823,
      -0.09258578717708588,
      -0.06317814439535141,
      -0.027532445266842842,
      -0.014419558458030224,
      0.08348681032657623,
      -0.05108329653739929,
      -0.021463826298713684,
      -0.015962935984134674,
      -0.009664718061685562,
      0.01039818674325943,
      -0.09877336770296097,
      -0.02048189751803875,
      0.07094620168209076,
      -0.015872640535235405,
      -0.03173426538705826,
      0.022926978766918182,
      -0.03671383485198021,
      -0.06172661483287811,
      -0.02103136107325554,
      0.006433592643588781,
      0.01828818768262863,
      -0.01494521927088499,
      -0.03529831022024155,
      0.006405764725059271,
      -0.02931979112327099,
      -0.01017039269208908,
      -0.06259724497795105,
      -0.07588708400726318,
      -0.0012457366101443768,
      0.014362012967467308,
      0.03140323981642723,
      -0.026333121582865715,
      -0.08948767185211182,
      -0.0714896023273468,
      -0.05191759765148163,
      -0.0901094451546669,
      -0.011838044971227646,
      -0.009101011790335178,
      -0.01606394350528717,
      0.012043717317283154,
      0.06651310622692108,
      0.032155152410268784,
      0.055480316281318665,
      -0.04763520881533623,
      -0.13860902190208435,
      -0.015106197446584702,
      -0.049262501299381256,
      -0.02796350233256817,
      0.05222931504249573,
      0.04050387442111969,
      0.006063436158001423,
      -0.04442602023482323,
      -0.05393535643815994,
      -0.03102153167128563,
      0.047498319298028946,
      -0.03564971312880516,
      0.0432136207818985,
      -0.007697819732129574,
      0.047005996108055115,
      0.009377489797770977,
      0.01893070712685585,
      -0.008312121033668518,
      -0.004545841831713915,
      -0.02559596672654152,
      -0.019075101241469383,
      -0.034051258116960526,
      0.0003525047213770449,
      -0.03585425019264221,
      0.10110867023468018,
      0.019160661846399307,
      -0.03664793819189072,
      -0.02764091268181801,
      0.12219899147748947,
      -0.025739165022969246,
      0.051348648965358734,
      -0.008775772526860237,
      0.09710380434989929,
      -0.02597752772271633,
      -0.050024036318063736,
      -0.01627853512763977,
      0.11629902571439743,
      -0.0049674310721457005,
      -0.044213417917490005,
      0.03957704082131386,
      0.12506021559238434,
      -0.05055756866931915,
      0.023199616000056267,
      -0.0330415703356266,
      -0.03049280308187008,
      -0.013730380684137344,
      -0.06838218122720718,
      -0.019789287820458412,
      0.09296909719705582,
      -0.023066269233822823,
      0.08983663469552994,
      -0.04055055230855942,
      -0.043689195066690445,
      -0.006340098101645708,
      -0.021637119352817535,
      -0.11281292885541916,
      0.12292078882455826,
      0.017907368019223213,
      -0.00664249062538147,
      0.003653400344774127,
      -0.018552137538790703,
      -0.04103580489754677,
      0.010711937211453915,
      -0.03318623825907707,
      -0.004588256124407053,
      0.012459066696465015,
      -0.019567416980862617,
      -0.039394207298755646,
      -0.08845018595457077,
      -0.04728003591299057,
      -0.035826560109853745,
      -0.04291157424449921,
      -0.017338089644908905,
      0.005642756819725037,
      0.012960466556251049,
      -0.024438727647066116,
      -0.12774693965911865,
      -0.10542405396699905,
      -0.07729651033878326,
      -0.11633937060832977,
      0.08612319082021713,
      -0.0031860098242759705,
      -0.044302426278591156,
      -0.08192771673202515,
      -0.10835747420787811,
      -0.09070990234613419,
      -0.024304110556840897,
      -0.08891241252422333,
      0.041886817663908005,
      -0.01394684985280037,
      -0.09033217281103134,
      -0.08759298920631409,
      -0.09523079544305801,
      -0.035811156034469604,
      -0.02902715466916561,
      -0.10769200325012207,
      0.03774985671043396,
      -0.04714295268058777,
      -0.15792986750602722,
      -0.07866285741329193,
      -0.04502246901392937,
      -0.05173458904027939,
      -0.08958141505718231,
      -0.011937523260712624,
      0.07035868614912033,
      -0.12041874974966049,
      -0.24750377237796783,
      -0.09054535627365112,
      -0.015444687567651272,
      -0.07471013814210892,
      -0.13481026887893677,
      -0.045681338757276535,
      0.06879400461912155,
      -0.1291774958372116,
      0.00250189658254385,
      -0.05597016587853432,
      -0.009792796336114407,
      -0.050835270434617996,
      -0.004711347632110119,
      -0.012770270928740501,
      0.04602934047579765,
      -0.00877824705094099,
      -0.04719194769859314,
      0.004544573370367289,
      -0.01912607066333294,
      -0.013777455314993858,
      0.007348136976361275,
      0.04072734713554382,
      0.06376291811466217,
      -0.04569699615240097,
      -0.052098311483860016,
      -0.10936947166919708,
      -0.10058364272117615,
      -0.07954183965921402,
      -0.06680531799793243,
      -0.06705424934625626,
      0.009587658569216728,
      -0.082160584628582,
      -0.08783341199159622,
      -0.055540814995765686,
      -0.12873625755310059,
      -0.0928960070014,
      0.06014907360076904,
      -0.040377091616392136,
      0.042514022439718246,
      -0.09208277612924576,
      0.012047256343066692,
      -0.09419063478708267,
      -0.07589033991098404,
      0.006012605968862772,
      -0.0555393286049366,
      0.03225870057940483,
      -0.029804395511746407,
      -0.05050429701805115,
      0.07193977385759354,
      0.001357845845632255,
      -0.09195930510759354,
      -0.0015863999724388123,
      -0.096964031457901,
      0.05189104378223419,
      -0.022201506420969963,
      -0.004328296519815922,
      0.039738912135362625,
      -0.04526881128549576,
      -0.08982906490564346,
      -0.0017807693220674992,
      -0.11030987650156021,
      -0.022549228742718697,
      0.014362987130880356,
      0.03186424449086189,
      -0.04196225479245186,
      -0.018636036664247513,
      -0.09984409809112549,
      -0.021427622064948082,
      -0.0789484903216362,
      -0.09245110303163528,
      0.03232544660568237,
      0.0008884196868166327,
      -0.13522027432918549,
      -0.00021134781127329916,
      -0.008032437413930893,
      -0.0073163509368896484,
      -0.0537625290453434,
      -0.06836345046758652,
      -0.031055757775902748,
      -0.009381260722875595,
      -0.025777526199817657,
      0.016188886016607285,
      -0.025815622881054878,
      0.02841811068356037,
      -0.062359798699617386,
      -0.061498090624809265,
      -0.06519626826047897,
      -0.03578658029437065,
      -0.0012454623356461525,
      -0.013559182174503803,
      -0.03889990597963333,
      -0.017758836969733238,
      -0.014916857704520226,
      -0.028175517916679382,
      -0.12156788259744644,
      0.023285282775759697,
      0.035980429500341415,
      0.009016357362270355,
      0.012919347733259201,
      0.028398433700203896,
      0.006893042474985123,
      0.030215419828891754,
      -0.15409573912620544,
      0.009718121960759163,
      0.0773887112736702,
      -0.015782637521624565,
      -0.017260165885090828,
      -0.01970565877854824,
      -0.03779994323849678,
      0.001981517532840371,
      -0.015781354159116745,
      0.020711736753582954,
      0.07329697906970978,
      -0.0005662093753926456,
      0.0035772062838077545,
      -0.06722941994667053,
      0.010643920861184597,
      -0.06081721931695938,
      0.0676063746213913,
      0.005865511018782854,
      -0.019294071942567825,
      -0.031939636915922165,
      0.02521648444235325,
      -0.032463930547237396,
      -0.007700861897319555,
      -0.07928117364645004,
      0.0021163756027817726,
      -0.038351185619831085,
      0.02528468519449234,
      -0.010796326212584972,
      0.032986946403980255,
      0.0264243483543396,
      0.023592112585902214,
      -0.06643734872341156,
      -0.04270639270544052,
      0.027478095144033432,
      -0.0015391275519505143,
      -0.018089650198817253,
      0.15164920687675476,
      0.05103393271565437,
      -0.017527665942907333,
      -0.08363740891218185,
      -0.011736907996237278,
      0.01089876051992178,
      -0.025692500174045563,
      -0.0038069812580943108,
      0.05764007568359375,
      0.031656041741371155,
      -0.04497217759490013,
      -0.223335862159729,
      -0.011812039650976658,
      -0.01082464586943388,
      -0.01738717593252659,
      0.01611362025141716,
      0.10247285664081573,
      -0.055950213223695755,
      0.003657593159005046,
      -0.17435690760612488,
      0.015105449594557285,
      0.013014762662351131,
      0.003593272063881159,
      0.019464662298560143,
      0.02741197496652603,
      0.02240421250462532,
      0.03275945782661438,
      -0.13600367307662964,
      -0.031295597553253174,
      -0.008719095028936863,
      0.048247355967760086,
      0.012261086143553257,
      -0.05034446343779564,
      0.0553719624876976,
      -0.002793356776237488,
      -0.04470422863960266,
      -0.10157295316457748,
      0.008740926161408424,
      0.05409594252705574,
      -0.007990126498043537,
      -0.11894670128822327,
      -0.017048154026269913,
      0.024042194709181786,
      -0.07756615430116653,
      -0.010890316218137741,
      0.05706389993429184,
      0.00457391794770956,
      -0.029896996915340424,
      -0.06211359426379204,
      -0.07510026544332504,
      -0.013289845548570156,
      -0.2337484210729599,
      -0.07302360236644745,
      0.03896130248904228,
      -0.09453212469816208,
      -0.07115639746189117,
      -0.07595066726207733,
      -0.18606895208358765,
      -0.07658130675554276,
      -0.19442035257816315,
      0.03317971155047417,
      -0.06161649897694588,
      -0.22442667186260223,
      -0.17058555781841278,
      -0.06940364092588425,
      -0.0968826562166214,
      -0.09515903890132904,
      -0.14058685302734375,
      0.00479888403788209,
      -0.12609528005123138,
      -0.31032586097717285,
      -0.18748445808887482,
      -0.04816332086920738,
      -0.09432585537433624,
      -0.19949871301651,
      -0.09335044771432877,
      0.0202666986733675,
      -0.1872151494026184,
      -0.02057449333369732,
      -0.020450251176953316,
      0.004701516591012478,
      -0.019578728824853897,
      0.03674640506505966,
      0.015501748770475388,
      0.00569992745295167,
      -0.010361535474658012,
      -0.01032406184822321,
      -0.013261357322335243,
      -0.0515524297952652,
      0.0004890831187367439,
      0.04364938661456108,
      0.005264338105916977,
      0.017265528440475464,
      -0.0035886529367417097,
      -0.023817874491214752,
      -0.09319749474525452,
      -0.081209696829319,
      -0.11033090204000473,
      -0.05442403256893158,
      -0.09958375245332718,
      0.010214085690677166,
      -0.08891051262617111,
      -0.1327531635761261,
      -0.018470143899321556,
      -0.030863510444760323,
      -0.04969808831810951,
      -0.10949324816465378,
      -0.035535722970962524,
      -0.0007651058258488774,
      -0.1490975320339203,
      -0.02469026669859886,
      -0.005647062323987484,
      -0.004578763153403997,
      0.001331506879068911,
      -0.11298663914203644,
      0.005872642155736685,
      -0.0021044835448265076,
      -0.05384199321269989,
      -0.06911084055900574,
      0.010452799499034882,
      0.012362431734800339,
      -0.014638477005064487,
      -0.07258005440235138,
      0.02858460135757923,
      -0.030968643724918365,
      -0.05539877712726593,
      -0.017782535403966904,
      0.003997686319053173,
      -0.10795298218727112,
      -0.035463254898786545,
      -0.06749488413333893,
      -0.07822201400995255,
      -0.02595600113272667,
      -0.03502431511878967,
      -0.016464808955788612,
      0.026024773716926575,
      -0.10858436673879623,
      -0.06508105993270874,
      -0.01334641594439745,
      -0.022005438804626465,
      -0.0537848062813282,
      -0.0546620637178421,
      0.012595581822097301,
      -0.04299841821193695,
      -0.048737358301877975,
      0.049810633063316345,
      -0.04281959682703018,
      -0.010406263172626495,
      -0.1988959014415741,
      0.010010145604610443,
      -0.05006999522447586,
      0.03383613005280495,
      -0.017849544063210487,
      -0.00938347913324833,
      -0.045712850987911224,
      -0.026772359386086464,
      -0.24690069258213043,
      0.023990118876099586,
      0.022248098626732826,
      0.05267293006181717,
      -0.01979226991534233,
      -0.005716121755540371,
      -0.01485961489379406,
      -0.0689902976155281,
      -0.22267571091651917,
      0.0519137978553772,
      -0.0019270733464509249,
      0.015630202367901802,
      -0.06979350745677948,
      -0.010621581226587296,
      -0.007381030824035406,
      0.0017107725143432617,
      -0.14987893402576447,
      -0.0008324182126671076,
      -0.03115655668079853,
      0.038137853145599365,
      -0.038211338222026825,
      0.006385823246091604,
      0.003128206357359886,
      -0.06249399855732918,
      -0.09671197086572647,
      0.043052371591329575,
      -0.02605854719877243,
      0.04125186800956726,
      -0.0387905016541481,
      0.023451514542102814,
      0.004787425510585308,
      -0.09082752466201782,
      -0.006715664640069008,
      0.0013881687773391604,
      0.0341048501431942,
      -0.014661709778010845,
      -0.015315094031393528,
      0.004232263192534447,
      0.03530460223555565,
      -0.08764202147722244,
      0.02094784565269947,
      0.014697588980197906,
      0.04189761355519295,
      0.024563902989029884,
      0.06996413320302963,
      -0.004265524912625551,
      0.008673189207911491,
      -0.028624359518289566,
      -0.05414026603102684,
      -0.006425272207707167,
      0.040184829384088516,
      0.027107298374176025,
      0.07855220884084702,
      0.10177542269229889,
      -9.734306513564661e-05,
      -0.15043385326862335,
      -0.13946859538555145,
      0.03333907574415207,
      0.01588209718465805,
      0.013785002753138542,
      0.10164845734834671,
      0.07001308351755142,
      0.031400904059410095,
      -0.22625787556171417,
      -0.1775221973657608,
      0.025344746187329292,
      0.014744596555829048,
      0.03991953656077385,
      0.1059778705239296,
      -0.008896655403077602,
      0.05909497290849686,
      -0.16260090470314026,
      -0.029129931703209877,
      0.017879733815789223,
      0.00984377320855856,
      0.003560745855793357,
      0.11533039063215256,
      0.028998902067542076,
      -0.0018463981105014682,
      -0.161190927028656,
      -0.04158885404467583,
      0.00035659485729411244,
      0.023461677134037018,
      0.03038538061082363,
      0.16536690294742584,
      0.021646901965141296,
      0.011024359613656998,
      -0.12153030931949615,
      0.07548432052135468,
      0.02254467085003853,
      0.09686005860567093,
      0.046432893723249435,
      0.005240294151008129,
      0.029665909707546234,
      0.028115715831518173,
      -0.08906809985637665,
      0.026770636439323425,
      0.03502051904797554,
      0.08324398845434189,
      -0.02048448845744133,
      -0.06987181305885315,
      0.01476492639631033,
      0.07756826281547546,
      -0.13742509484291077,
      -0.02290845848619938,
      0.07955238223075867,
      0.06027279794216156,
      -0.009474501945078373,
      -0.07533073425292969,
      -0.07461392134428024,
      0.006723201368004084,
      0.00921593327075243,
      -0.032282423228025436,
      0.014077426865696907,
      0.03794637694954872,
      -0.016925759613513947,
      -0.0918993428349495,
      -0.13984064757823944,
      -0.05972009524703026,
      -0.014960636384785175,
      0.03200499713420868,
      0.04187023267149925,
      -0.11336861550807953,
      -0.002337694400921464,
      -0.02482740394771099,
      -0.10833032429218292,
      -0.05868612602353096,
      -0.05162405967712402,
      0.05665115267038345,
      -0.07126519829034805,
      0.009923599660396576,
      -0.04627610743045807,
      -0.050556208938360214,
      0.013013672083616257,
      0.03279935196042061,
      0.006958095822483301,
      0.03153172507882118,
      -0.01602368988096714,
      -0.02655290625989437,
      -0.02556099370121956,
      -0.018813759088516235,
      -0.04140262305736542,
      0.029979940503835678,
      0.021822834387421608,
      0.06277863681316376,
      -0.00554130831733346,
      -0.08064203709363937,
      -0.15227723121643066,
      -0.18012413382530212,
      -0.18600617349147797,
      -0.09678865969181061,
      -0.15028829872608185,
      0.003037596819922328,
      -0.09271379560232162,
      -0.17973189055919647,
      -0.08677108585834503,
      -0.09264594316482544,
      -0.04256974160671234,
      0.001350961159914732,
      -0.07140346616506577,
      0.044432029128074646,
      -0.09880553930997849,
      -0.1501183956861496,
      -0.04201022535562515,
      0.032275937497615814,
      0.002176180249080062,
      -0.07290773838758469,
      0.04890904948115349,
      0.025065818801522255,
      -0.12294463813304901,
      -0.09754714369773865,
      -0.054779648780822754,
      -0.008947599679231644,
      0.008334881626069546,
      -0.060456447303295135,
      0.04344571381807327,
      -0.13378658890724182,
      -0.026288935914635658,
      -0.04985615983605385,
      0.03788754343986511,
      -0.07012343406677246,
      -0.05653633177280426,
      0.006413034163415432,
      -0.0029052160680294037,
      -0.18817244470119476,
      -0.006814529187977314,
      0.011263368651270866,
      -0.009192312136292458,
      -0.020127959549427032,
      -0.019305748865008354,
      -0.0474858395755291,
      0.015308803878724575,
      -0.13052153587341309,
      0.008977377787232399,
      0.0472530797123909,
      0.011944873258471489,
      -0.05808297172188759,
      0.011908598244190216,
      -0.054690614342689514,
      -0.03376360610127449,
      -0.16189152002334595,
      0.03102434240281582,
      -0.0019194933120161295,
      0.016602693125605583,
      -0.052265457808971405,
      -0.0001653772487770766,
      -0.0042628697119653225,
      -0.058171022683382034,
      -0.2126421481370926,
      0.02543274313211441,
      -0.0747220441699028,
      0.022020606324076653,
      -0.003073733998462558,
      0.015002211555838585,
      0.03036392852663994,
      -0.030340466648340225,
      -0.23120279610157013,
      -0.022751372307538986,
      -0.033424027264118195,
      0.019092125818133354,
      -0.04381870478391647,
      0.04906109347939491,
      -0.049743667244911194,
      -0.0716053918004036,
      -0.1676405668258667,
      0.026293251663446426,
      -0.04192734882235527,
      0.0473950169980526,
      0.01924251578748226,
      0.015123510733246803,
      0.003424799768254161,
      -0.023483797907829285,
      -0.12934567034244537,
      -0.003962096758186817,
      0.054248660802841187,
      0.02760981023311615,
      0.018346555531024933,
      0.04008270427584648,
      -0.021561287343502045,
      -0.008942726068198681,
      -0.058250900357961655,
      0.020757921040058136,
      0.062761589884758,
      0.06354011595249176,
      0.02683398127555847,
      0.024710385128855705,
      0.015176098793745041,
      0.06745841354131699,
      -0.0501691959798336,
      0.05169251561164856,
      0.1628245711326599,
      0.06628889590501785,
      0.04215681552886963,
      0.06641093641519547,
      0.021500878036022186,
      -0.007715779356658459,
      -0.033423103392124176,
      0.08216845989227295,
      0.17333854734897614,
      0.08559410274028778,
      0.16985195875167847,
      0.037391673773527145,
      0.0062998561188578606,
      -0.09474295377731323,
      0.003406539326533675,
      0.0741209164261818,
      0.21037469804286957,
      0.06773406267166138,
      0.17043708264827728,
      0.01245797611773014,
      0.021689027547836304,
      -0.10813601315021515,
      -0.056317154318094254,
      0.059336092323064804,
      0.1375495046377182,
      0.01594165898859501,
      0.11312472820281982,
      0.0719819888472557,
      0.07216928899288177,
      -0.0921693965792656,
      -0.0504162535071373,
      0.0178654957562685,
      0.14631614089012146,
      0.017371155321598053,
      0.15923543274402618,
      0.04374288022518158,
      0.006720621604472399,
      -0.11192460358142853,
      -0.011779485270380974,
      0.01689090020954609,
      0.01748565398156643,
      0.06490087509155273,
      0.20687834918498993,
      0.03742489218711853,
      0.04305414855480194,
      -0.1820686161518097,
      0.05895354226231575,
      0.044326718896627426,
      0.033183369785547256,
      0.07704129815101624,
      0.15946459770202637,
      0.03306485712528229,
      -0.00043728959280997515,
      -0.25845521688461304,
      0.006164432968944311,
      0.015116631053388119,
      0.03619104251265526,
      0.005624881945550442,
      0.03496517986059189,
      0.007044903934001923,
      0.04876741021871567,
      -0.17270314693450928,
      0.02052687481045723,
      0.05634492263197899,
      0.03276307135820389,
      0.025749802589416504,
      -0.016402099281549454,
      -0.09688884764909744,
      -0.014788826927542686,
      -0.1522756814956665,
      -0.059615787118673325,
      -0.0003814385272562504,
      0.03229812532663345,
      -0.08417598158121109,
      -0.06055910512804985,
      -0.12094086408615112,
      0.020371362566947937,
      -0.03392566740512848,
      0.0015410151099786162,
      -0.013053752481937408,
      -0.054260678589344025,
      -0.16973166167736053,
      -0.06636380404233932,
      0.00275417766533792,
      -0.03842858970165253,
      0.020475976169109344,
      -0.019933326169848442,
      -0.0994466170668602,
      -0.04774605482816696,
      -0.0023959889076650143,
      0.006686323322355747,
      -0.002324973698705435,
      0.06454300880432129,
      0.022327817976474762,
      0.025099946185946465,
      0.014496109448373318,
      0.07201230525970459,
      -0.016031017526984215,
      -0.02524408884346485,
      -0.036439571529626846,
      -0.03952552378177643,
      -0.007046452257782221,
      0.03888191282749176,
      0.02730236016213894,
      -0.07127007097005844,
      -0.033882007002830505,
      -0.13948237895965576,
      -0.11956939101219177,
      0.02104242518544197,
      -0.12104912847280502,
      0.025321826338768005,
      -0.09494694322347641,
      -0.0017236402491107583,
      -0.09721314162015915,
      -0.1379920095205307,
      -0.03966487571597099,
      -0.03310209885239601,
      -0.02917531505227089,
      0.022821519523859024,
      -0.023579925298690796,
      0.009842504747211933,
      -0.015109377913177013,
      0.007811273448169231,
      0.018514543771743774,
      -0.06139228120446205,
      0.03869723528623581,
      0.005589288659393787,
      -0.05635698884725571,
      -0.011491885408759117,
      0.021555770188570023,
      0.010872246697545052,
      0.014378849416971207,
      -0.0631733387708664,
      0.05721043050289154,
      -0.048382651060819626,
      0.016707835718989372,
      0.0008616351988166571,
      0.023334497585892677,
      -0.048132430762052536,
      0.009342546574771404,
      -0.03662920743227005,
      0.003784809960052371,
      -0.06518620252609253,
      0.012453182600438595,
      0.036740802228450775,
      -0.004840767942368984,
      -0.0608624592423439,
      -0.004441947676241398,
      -0.06499961763620377,
      0.024104563519358635,
      -0.13084307312965393,
      0.0004895410966128111,
      -0.04284602776169777,
      0.03507917374372482,
      0.01599377766251564,
      0.038355689495801926,
      -0.03645940124988556,
      -0.021332290023565292,
      -0.14950239658355713,
      0.014564256183803082,
      0.015329995192587376,
      -0.012805839069187641,
      -0.023342570289969444,
      0.03960239514708519,
      0.00018525567429605871,
      -0.017078619450330734,
      -0.17697513103485107,
      0.021535858511924744,
      -0.028049061074852943,
      0.03616679459810257,
      -0.05776379629969597,
      0.01145454403012991,
      -0.004319238476455212,
      -0.021646946668624878,
      -0.12787310779094696,
      0.04350743815302849,
      -0.04860605672001839,
      -0.0067651583813130856,
      -0.014386444352567196,
      -0.0004218416288495064,
      -0.00030285079265013337,
      0.003966204822063446,
      0.004244124982506037,
      -0.04549612104892731,
      0.04885968193411827,
      0.0043061887845396996,
      0.03628450632095337,
      0.05865781381726265,
      -0.004899830091744661,
      -0.06597278267145157,
      -0.09206406027078629,
      0.019771726801991463,
      0.05072256177663803,
      0.016286499798297882,
      0.11895700544118881,
      0.0403866171836853,
      -0.05821852385997772,
      0.013095974922180176,
      -0.06700880080461502,
      -0.006876286119222641,
      0.05715777352452278,
      0.01644059643149376,
      0.13186049461364746,
      0.0659385547041893,
      -0.03532961383461952,
      -0.115109384059906,
      -0.0040899524465203285,
      -0.0012317535001784563,
      0.10372517257928848,
      0.08645941317081451,
      0.10681996494531631,
      0.07334188371896744,
      -0.036682840436697006,
      -0.21536630392074585,
      0.05293555557727814,
      0.06412018835544586,
      0.16229332983493805,
      0.0560099333524704,
      0.19075843691825867,
      0.06392903625965118,
      0.08506574481725693,
      -0.17242737114429474,
      0.10323220491409302,
      0.031897880136966705,
      0.1512061059474945,
      0.05423919856548309,
      0.23420824110507965,
      0.12614181637763977,
      0.07051784545183182,
      -0.17030468583106995,
      0.03317784518003464,
      0.007345878053456545,
      0.11150330305099487,
      0.02855280414223671,
      0.27244308590888977,
      0.08124606311321259,
      0.06667513400316238,
      -0.10290992259979248,
      -0.031811945140361786,
      0.016065288335084915,
      0.10571471601724625,
      0.06714241951704025,
      0.13019682466983795,
      0.01128411665558815,
      0.04780246317386627,
      -0.209232360124588,
      -0.08246306329965591,
      0.0478280633687973,
      0.06487502157688141,
      0.04909609630703926,
      0.13037508726119995,
      0.07553674280643463,
      0.06791180372238159,
      -0.24371325969696045,
      0.03946850448846817,
      0.07475747913122177,
      0.015342120081186295,
      0.020770322531461716,
      0.2101433128118515,
      0.06258679926395416,
      0.013020625337958336,
      -0.1548181027173996,
      0.09205851703882217,
      0.002690766006708145,
      0.037112489342689514,
      0.03211137652397156,
      0.12959060072898865,
      0.08014249801635742,
      0.06607893109321594,
      -0.1266596019268036,
      0.0606367290019989,
      -0.003797002835199237,
      0.0012155602453276515,
      0.054055798798799515,
      0.05262157320976257,
      -0.05429092422127724,
      0.06602706760168076,
      -0.2083788961172104,
      0.06074797362089157,
      0.02920117974281311,
      -0.014538701623678207,
      -0.00146487879101187,
      -0.006018373649567366,
      -0.1697029322385788,
      0.018649227917194366,
      -0.06507167965173721,
      0.1016872450709343,
      -0.020901374518871307,
      -0.07368739694356918,
      -0.09453757852315903,
      -0.06111644580960274,
      -0.15673774480819702,
      -0.13314288854599,
      -0.002005888381972909,
      0.08264840394258499,
      -0.15091872215270996,
      -0.004766118712723255,
      0.06420642137527466,
      0.0914379134774208,
      0.08054519444704056,
      0.06290343403816223,
      0.055747244507074356,
      0.051154725253582,
      -0.00910048745572567,
      0.0963255986571312,
      0.029456693679094315,
      0.015095020644366741,
      0.04800298437476158,
      -0.005025556776672602,
      0.006543747149407864,
      0.027994414791464806,
      0.0535629540681839,
      0.035439979285001755,
      0.005592716857790947,
      -0.06230175867676735,
      -0.05610642582178116,
      0.01244623027741909,
      -0.02676278166472912,
      -0.0325937494635582,
      0.023784512653946877,
      -0.01940767467021942,
      -0.031644389033317566,
      -0.03829580917954445,
      -0.02170252427458763,
      -0.034158218652009964,
      0.025383366271853447,
      -0.05670718476176262,
      0.010057279840111732,
      -0.006368373520672321,
      -0.011753957718610764,
      0.0006377992103807628,
      0.010865726508200169,
      -0.0735735073685646,
      0.07125235348939896,
      -0.05330255627632141,
      0.013945106416940689,
      -0.04851265251636505,
      0.011324308812618256,
      0.03470345959067345,
      0.019494913518428802,
      -0.05904902145266533,
      0.009696180000901222,
      -0.10970178991556168,
      -0.02194982022047043,
      0.030553486198186874,
      0.00678151985630393,
      -0.029298126697540283,
      0.02617601677775383,
      -0.034561268985271454,
      0.015477605164051056,
      -0.0509037971496582,
      -0.001586066442541778,
      0.0018817732343450189,
      0.04980763792991638,
      -0.04227359592914581,
      0.05087939277291298,
      -0.01287846826016903,
      0.04041750356554985,
      -0.09083044528961182,
      0.027052268385887146,
      0.06121475249528885,
      0.04847753793001175,
      0.0026416589971631765,
      0.044508837163448334,
      -0.02100832387804985,
      0.005329174920916557,
      -0.09701447933912277,
      0.01996162347495556,
      0.039029475301504135,
      0.03479645401239395,
      0.025259625166654587,
      -0.01629585586488247,
      0.0655335783958435,
      0.07317711412906647,
      -0.15396960079669952,
      0.05584681034088135,
      0.04379654303193092,
      -0.03586377948522568,
      -0.08881636708974838,
      0.03917325288057327,
      0.021619083359837532,
      -0.011180051602423191,
      -0.11729931086301804,
      0.05624890327453613,
      -0.04081263393163681,
      -0.020091915503144264,
      0.038458775728940964,
      0.016224408522248268,
      -0.04248076304793358,
      -0.05078873410820961,
      -0.10984901338815689,
      0.0030998464208096266,
      0.008063427172601223,
      0.02045191265642643,
      0.06566174328327179,
      0.04302627593278885,
      0.017779678106307983,
      0.003856584895402193,
      -0.12191039323806763,
      0.03736448287963867,
      -0.08373397588729858,
      0.03959319368004799,
      0.126158207654953,
      0.05373213067650795,
      0.024219432845711708,
      -0.08211579918861389,
      -0.19736742973327637,
      0.03488524258136749,
      -0.06536886096000671,
      0.04535780847072601,
      0.08206444978713989,
      0.055184654891490936,
      0.022548960521817207,
      -0.17635264992713928,
      -0.17427286505699158,
      0.017876289784908295,
      -0.025137847289443016,
      0.05002019181847572,
      0.15735183656215668,
      0.04779331758618355,
      0.09390750527381897,
      -0.20336760580539703,
      -0.08155155181884766,
      0.06283130496740341,
      0.06382572650909424,
      0.06602488458156586,
      0.11334861814975739,
      0.0888698548078537,
      0.0923600047826767,
      -0.18270915746688843,
      -0.06257278472185135,
      0.04079979285597801,
      0.12053604423999786,
      0.03577033802866936,
      0.16144204139709473,
      0.07881564646959305,
      0.04061970114707947,
      -0.1903979480266571,
      -0.06832322478294373,
      0.04425562918186188,
      0.07742640376091003,
      0.0575571246445179,
      0.30309370160102844,
      0.11004623025655746,
      0.024409214034676552,
      -0.08453582972288132,
      -0.037514157593250275,
      0.048250142484903336,
      0.06581174582242966,
      0.015285395085811615,
      0.1780417412519455,
      0.06305238604545593,
      0.08196502923965454,
      -0.05772184580564499,
      -0.023603443056344986,
      0.014705481939017773,
      0.08358431607484818,
      0.0064552859403193,
      0.14333297312259674,
      0.0667061060667038,
      0.11060266941785812,
      0.005036715883761644,
      -0.07048851996660233,
      0.0727895125746727,
      0.08506851643323898,
      0.017888547852635384,
      0.1985509991645813,
      0.06562953442335129,
      0.023329924792051315,
      -0.04325895756483078,
      -0.031522687524557114,
      0.051831841468811035,
      0.06072092801332474,
      0.023906918242573738,
      0.16981220245361328,
      0.060823895037174225,
      6.701845995848998e-05,
      -0.07126063853502274,
      -0.07395550608634949,
      0.03373796492815018,
      -0.03641591593623161,
      0.006460102275013924,
      0.03374001756310463,
      -0.05823904275894165,
      0.08797716349363327,
      -0.07057841122150421,
      -0.15505477786064148,
      -0.0014146303292363882,
      -0.10854481160640717,
      -0.04701428860425949,
      -0.12397946417331696,
      -0.10639604926109314,
      -0.03404668718576431,
      -0.0547182597219944,
      -0.04575832933187485,
      -0.0337584912776947,
      -0.17251665890216827,
      -0.1192246749997139,
      -0.0540376715362072,
      -0.17718450725078583,
      -0.11322728544473648,
      -0.009813341312110424,
      0.06761717051267624,
      -0.1036265566945076,
      0.045093245804309845,
      0.04482124373316765,
      0.09774433821439743,
      0.0468217208981514,
      0.04685001075267792,
      0.07591710239648819,
      0.0431525781750679,
      0.01873239316046238,
      -0.02202734351158142,
      0.07270986586809158,
      0.049402132630348206,
      -0.03024960309267044,
      0.03957292065024376,
      0.020973896607756615,
      0.065149687230587,
      -0.06839685887098312,
      -0.00838538259267807,
      -0.023489998653531075,
      -0.07295595854520798,
      -0.05699741467833519,
      -0.08805743604898453,
      -0.06187564134597778,
      0.04198891669511795,
      0.004756486043334007,
      -0.07980777323246002,
      -0.011089464649558067,
      -0.015252023003995419,
      -0.038004226982593536,
      -0.016202939674258232,
      -0.0310477614402771,
      0.00585370697081089,
      -0.04742429032921791,
      -0.060504186898469925,
      0.018549755215644836,
      -0.013623307459056377,
      0.0053580752573907375,
      0.0267595537006855,
      0.02069275453686714,
      0.003145502647385001,
      -0.053911879658699036,
      -0.045160721987485886,
      -0.0019448651000857353,
      0.018452905118465424,
      -0.003938394598662853,
      0.00310066738165915,
      0.07191049307584763,
      -0.15140381455421448,
      0.024104474112391472,
      0.008539438247680664,
      0.00035846055834554136,
      -0.0328662134706974,
      0.009620312601327896,
      -0.03942076489329338,
      -0.011320725083351135,
      -0.22028324007987976,
      0.014971168711781502,
      -0.0690082386136055,
      0.05070856586098671,
      -0.030575459823012352,
      0.008553566411137581,
      -0.08474809676408768,
      -0.02471545897424221,
      -0.23004505038261414,
      0.019975604489445686,
      -0.02761530689895153,
      0.021724574267864227,
      -0.014110214076936245,
      0.008803312666714191,
      0.02333282120525837,
      0.042129624634981155,
      -0.052146755158901215,
      0.040413059294223785,
      -0.06589474529027939,
      0.004752208944410086,
      0.049629174172878265,
      0.04480261355638504,
      0.06173265725374222,
      0.01714452914893627,
      -0.08155534416437149,
      -0.02969573810696602,
      0.012636847794055939,
      0.013608410954475403,
      -0.020770389586687088,
      -0.01240118220448494,
      -0.03089437074959278,
      0.05006372556090355,
      -0.22255061566829681,
      0.033927079290151596,
      -0.01831083744764328,
      0.010450925678014755,
      0.005785434041172266,
      0.048095978796482086,
      -0.06062043458223343,
      -0.0003084996424149722,
      -0.205878347158432,
      -0.0017504956340417266,
      -0.06608844548463821,
      0.031107159331440926,
      0.037968628108501434,
      0.02721547707915306,
      0.029359055683016777,
      -0.03691564127802849,
      -0.19793395698070526,
      0.0022836066782474518,
      -0.08877675980329514,
      0.02713826484978199,
      0.10155763477087021,
      -0.03083418868482113,
      0.014175460673868656,
      -0.11079080402851105,
      -0.17654551565647125,
      -0.02779480814933777,
      -0.11230765283107758,
      -0.028641466051340103,
      0.10704805701971054,
      0.009297676384449005,
      0.008760069496929646,
      -0.15504738688468933,
      -0.08757436275482178,
      -0.07324009388685226,
      -0.08952993899583817,
      -0.001875369343906641,
      0.15799075365066528,
      0.08436539024114609,
      -0.01546378992497921,
      -0.12644469738006592,
      -0.13304628431797028,
      -0.04478588327765465,
      -0.015200243331491947,
      0.017785564064979553,
      0.14398014545440674,
      0.042997751384973526,
      -0.016577180474996567,
      -0.19370535016059875,
      -0.18035688996315002,
      0.01459538098424673,
      0.037006888538599014,
      0.043289534747600555,
      0.13256600499153137,
      0.09218358993530273,
      0.026719408109784126,
      -0.14548736810684204,
      -0.062564417719841,
      -0.006328475661575794,
      0.029080256819725037,
      0.016520101577043533,
      0.21125534176826477,
      0.09793355315923691,
      0.045391395688056946,
      -0.03848825395107269,
      -0.051383256912231445,
      0.019662050530314445,
      0.05331866070628166,
      0.09776932746171951,
      0.23034536838531494,
      0.1002536192536354,
      0.03389719873666763,
      -0.06137673929333687,
      -0.1375909149646759,
      0.00288573931902647,
      0.09998336434364319,
      0.07286043465137482,
      0.15482336282730103,
      0.06364118307828903,
      0.11236243695020676,
      -0.05766218155622482,
      -0.244651198387146,
      0.08292564749717712,
      0.09364864975214005,
      0.005534024443477392,
      0.12172172963619232,
      0.02110142819583416,
      0.04560979828238487,
      0.02375287562608719,
      -0.13748948276042938,
      0.05472464859485626,
      0.05575362592935562,
      -0.0014445391716435552,
      0.18390312790870667,
      0.05081367865204811,
      0.027580764144659042,
      0.08554723113775253,
      -0.11328835785388947,
      0.041574880480766296,
      0.0641355812549591,
      -0.033135320991277695,
      0.0012234083842486143,
      -0.031245101243257523,
      0.09554748237133026,
      -0.017540838569402695,
      -0.0631498172879219,
      0.04229375720024109,
      -0.061772897839546204,
      -0.02719576470553875,
      -0.09238997846841812,
      -0.11854790151119232,
      -0.004358244128525257,
      -0.07103431224822998,
      -0.05359431356191635,
      -0.029817383736371994,
      -0.18170233070850372,
      -0.09476787596940994,
      -0.1027626171708107,
      -0.10959440469741821,
      -0.13832136988639832,
      0.028302310034632683,
      0.06160304695367813,
      -0.09407886117696762,
      -0.015904799103736877,
      0.0022925613448023796,
      -0.033813510090112686,
      0.05464845150709152,
      0.013864939101040363,
      0.029970239847898483,
      0.07077780365943909,
      0.07281534373760223,
      -0.03565940633416176,
      -0.012767469510436058,
      0.02151958830654621,
      -0.03871838003396988,
      0.03238056227564812,
      -0.044506266713142395,
      0.0506480373442173,
      -0.06170303747057915,
      -0.06986287981271744,
      -0.014320462010800838,
      -0.06326232105493546,
      -0.04285378381609917,
      0.001769451075233519,
      -0.06972263008356094,
      0.03962719812989235,
      -0.07806745916604996,
      -0.014629285782575607,
      -0.044435180723667145,
      -0.04880766570568085,
      -0.031112950295209885,
      0.04111464321613312,
      -0.023575017228722572,
      0.03850219026207924,
      -0.03619672358036041,
      -0.020030226558446884,
      0.02322455681860447,
      0.06589825451374054,
      0.06640036404132843,
      0.02208567038178444,
      0.05520309880375862,
      -0.07053585350513458,
      -0.005365339107811451,
      0.043956462293863297,
      0.0009271171875298023,
      0.0028380760923027992,
      0.009738774970173836,
      -0.04052194207906723,
      0.03545864671468735,
      -0.1611793041229248,
      0.03089051879942417,
      -0.0943349301815033,
      0.05226941779255867,
      -0.014047960750758648,
      -0.0023459168151021004,
      -0.05160422623157501,
      -0.004989686422049999,
      -0.16586941480636597,
      0.011329900473356247,
      -0.09037645906209946,
      0.023907985538244247,
      -0.030130861327052116,
      0.023170657455921173,
      0.02414165809750557,
      0.03294997662305832,
      -0.03322755545377731,
      0.016874125227332115,
      -0.02971453219652176,
      0.017920387908816338,
      -0.013964829035103321,
      0.015815328806638718,
      0.041239555925130844,
      0.14201848208904266,
      -0.056479569524526596,
      -0.01628532074391842,
      0.004491246771067381,
      -0.011651177890598774,
      -0.046428486704826355,
      0.02195291593670845,
      -0.025149760767817497,
      0.052444249391555786,
      -0.10444966703653336,
      0.03605668246746063,
      0.023036997765302658,
      -0.009354652836918831,
      0.07863916456699371,
      0.07468123733997345,
      0.006967894732952118,
      0.10324489325284958,
      -0.19331039488315582,
      -0.009707439690828323,
      0.04870596155524254,
      0.019539933651685715,
      -0.030097950249910355,
      -0.027635348960757256,
      0.002029135823249817,
      -0.04417535290122032,
      -0.25575539469718933,
      0.003080494934692979,
      -0.0031333023216575384,
      0.0065892585553228855,
      -0.035847850143909454,
      -0.04502587020397186,
      0.029724670574069023,
      -0.0933028906583786,
      -0.10117793828248978,
      0.021095018833875656,
      -0.1410699486732483,
      -0.046033527702093124,
      0.09612683206796646,
      -0.06446853280067444,
      0.013307022862136364,
      -0.1369020938873291,
      -0.06870827078819275,
      -0.040062036365270615,
      -0.31196823716163635,
      -0.0810992568731308,
      0.12790031731128693,
      -0.003577909665182233,
      -0.050116200000047684,
      -0.12534038722515106,
      -0.04190235212445259,
      -0.14736294746398926,
      -0.24056054651737213,
      -0.06538259238004684,
      0.13966697454452515,
      0.09422628581523895,
      -0.014034094288945198,
      -0.005189951043576002,
      -0.030549930408596992,
      -0.09360908716917038,
      -0.06641846895217896,
      0.0012400617124512792,
      0.1403031051158905,
      0.03649282827973366,
      0.00686822971329093,
      -0.15262748301029205,
      -0.10041617602109909,
      -0.06594879925251007,
      0.012106472626328468,
      0.025961466133594513,
      0.16333772242069244,
      0.06467743217945099,
      0.027209116145968437,
      -0.09010612219572067,
      -0.16901041567325592,
      -0.0065315584652125835,
      -0.011602966114878654,
      0.05760375037789345,
      0.13501659035682678,
      0.09088726341724396,
      0.011272882111370564,
      -0.006487449165433645,
      -0.1534706950187683,
      0.033320095390081406,
      0.03392339497804642,
      0.07535956054925919,
      0.25244686007499695,
      0.08227677643299103,
      0.02521532028913498,
      0.002791509497910738,
      -0.06319157034158707,
      0.03410178795456886,
      0.09387145191431046,
      0.06153048574924469,
      0.11384409666061401,
      0.052913304418325424,
      0.04408964142203331,
      -0.030312176793813705,
      -0.145475834608078,
      0.05747726559638977,
      0.06961049139499664,
      0.049434173852205276,
      0.1243138387799263,
      0.03898325562477112,
      0.08836682140827179,
      0.024737782776355743,
      -0.07584893703460693,
      0.0283503457903862,
      0.06244102120399475,
      0.03970470651984215,
      0.20527972280979156,
      0.09352460503578186,
      0.07727926224470139,
      0.12726834416389465,
      -0.16676516830921173,
      0.0469059944152832,
      0.12093961238861084,
      -0.011135190725326538,
      0.038044899702072144,
      -0.04565541818737984,
      0.029172297567129135,
      0.0009137840825133026,
      -0.1013517677783966,
      0.06137410178780556,
      -0.042004916816949844,
      -0.012006816454231739,
      -0.04528017342090607,
      -0.17148956656455994,
      0.0016391390236094594,
      -0.08914586156606674,
      -0.07444215565919876,
      0.04849797859787941,
      -0.15561498701572418,
      -0.10319411009550095,
      -0.07443385571241379,
      -0.09838955849409103,
      -0.1158934161067009,
      -0.04912731423974037,
      0.02390415221452713,
      -0.08866309374570847,
      0.016245083883404732,
      -0.025488682091236115,
      0.018375931307673454,
      -0.02112955041229725,
      0.031302109360694885,
      0.005330552347004414,
      0.047105517238378525,
      0.0034767016768455505,
      -0.07613573968410492,
      -0.03558150678873062,
      -0.04770180210471153,
      -0.005647880956530571,
      0.008249860256910324,
      -0.03457682579755783,
      0.031513966619968414,
      0.0056627849116921425,
      -0.008283582516014576,
      -0.035452380776405334,
      -0.014905735850334167,
      -0.04497791826725006,
      -0.013461057096719742,
      0.02488858252763748,
      -0.03299901634454727,
      -0.06810808181762695,
      0.031048109754920006,
      -0.04777051508426666,
      -0.019113466143608093,
      -0.03795080631971359,
      -0.019636472687125206,
      -0.0207501370459795,
      0.005368267185986042,
      -0.01628897339105606,
      -0.00943952240049839,
      0.030063239857554436,
      0.036351729184389114,
      0.043614428490400314,
      -0.021533271297812462,
      0.08177841454744339,
      -0.0559731163084507,
      0.03945543244481087,
      0.0005832386086694896,
      -0.004110283683985472,
      0.037963639944791794,
      0.015599522739648819,
      -0.00895802304148674,
      0.09687772393226624,
      -0.13412053883075714,
      0.0266720000654459,
      0.08656400442123413,
      0.05138925835490227,
      0.03328802436590195,
      0.004358930513262749,
      0.106290802359581,
      0.14542719721794128,
      -0.17570047080516815,
      0.07382404804229736,
      0.034035924822092056,
      0.0581168495118618,
      0.016757342964410782,
      0.0479130893945694,
      0.020685527473688126,
      0.14214667677879333,
      -0.126532182097435,
      0.031118888407945633,
      0.07476939260959625,
      0.04677179455757141,
      0.014607375487685204,
      0.03924382105469704,
      0.02277432195842266,
      0.20592889189720154,
      -0.24934960901737213,
      0.005772380158305168,
      0.00026609524502418935,
      -0.0037407081108540297,
      -0.03005015291273594,
      -0.028052428737282753,
      0.01966150477528572,
      0.11507099866867065,
      -0.23219110071659088,
      0.06157064810395241,
      0.04076207056641579,
      -0.004415402188897133,
      0.10253362357616425,
      0.0548890084028244,
      0.04573756828904152,
      0.07197032123804092,
      -0.24287772178649902,
      0.03281033784151077,
      -0.06984341144561768,
      0.007446375209838152,
      -0.021678633987903595,
      -0.09255505353212357,
      -0.011292374692857265,
      -0.1436786651611328,
      -0.3059878945350647,
      0.0025442384649068117,
      -0.1343156397342682,
      -0.028636373579502106,
      -0.032063622027635574,
      -0.15681175887584686,
      -0.014434834010899067,
      -0.11449986696243286,
      -0.1702253371477127,
      -0.05669654905796051,
      -0.21611380577087402,
      -0.10842366516590118,
      0.03308878839015961,
      -0.10622835904359818,
      -0.03660514950752258,
      -0.11806133389472961,
      -0.06563420593738556,
      -0.12090270966291428,
      -0.1787174493074417,
      -0.12077469378709793,
      0.15259774029254913,
      -0.04047149419784546,
      -0.10889767855405807,
      -0.06018821522593498,
      -0.06359829753637314,
      -0.13001562654972076,
      -0.32652220129966736,
      -0.05245519056916237,
      0.12430872023105621,
      0.04789869114756584,
      -0.09567571431398392,
      -0.08059456944465637,
      -0.10470633208751678,
      -0.09416922926902771,
      -0.21256306767463684,
      -0.021354330703616142,
      0.13782674074172974,
      0.07893314957618713,
      -0.03712305426597595,
      -0.08855610340833664,
      -0.17134711146354675,
      -0.09143433719873428,
      0.007286673877388239,
      -0.007612891960889101,
      0.11118768900632858,
      0.07591281086206436,
      0.025027291849255562,
      -0.014109562151134014,
      -0.19645653665065765,
      0.029863126575946808,
      -0.12224409729242325,
      -0.018407953903079033,
      0.057260945439338684,
      0.04663003608584404,
      0.002551453886553645,
      -0.06120656430721283,
      -0.11283998936414719,
      0.03173034265637398,
      -0.10576565563678741,
      0.06108089163899422,
      0.10060442239046097,
      0.09521089494228363,
      0.03069416433572769,
      0.06996241211891174,
      -0.07673563808202744,
      -0.01785230077803135,
      -0.019086647778749466,
      0.047379184514284134,
      0.10227992385625839,
      0.0652376189827919,
      0.015637394040822983,
      0.021446092054247856,
      -0.06952903419733047,
      0.027313891798257828,
      0.07528425008058548,
      0.07011068612337112,
      0.0908672958612442,
      0.052035246044397354,
      0.0573214516043663,
      0.03776903450489044,
      -0.17062696814537048,
      0.05374685302376747,
      0.051613155752420425,
      0.04462002217769623,
      0.21476183831691742,
      0.07193486392498016,
      0.06802505254745483,
      0.08855746686458588,
      -0.2043377310037613,
      0.06228206679224968,
      0.02817045897245407,
      0.04022945091128349,
      0.07103047519922256,
      -0.06737913191318512,
      0.047668617218732834,
      -0.028223631903529167,
      -0.10408731549978256,
      0.05917000025510788,
      0.07163429260253906,
      0.0032544818241149187,
      0.011622101068496704,
      -0.07661658525466919,
      0.042382463812828064,
      -0.1686171293258667,
      -0.04691415652632713,
      0.029049165546894073,
      -0.10587314516305923,
      -0.03685308247804642,
      -0.04988265782594681,
      -0.06506657600402832,
      -0.10337452590465546,
      -0.01907464675605297,
      -0.006694893818348646,
      -0.022331567481160164,
      -0.015528400428593159,
      0.017140774056315422,
      -0.015751633793115616,
      -0.027915695682168007,
      0.030606582760810852,
      -0.006708813365548849,
      0.0477902889251709,
      -0.030695177614688873,
      -0.004596109967678785,
      -0.07258303463459015,
      -0.07911554723978043,
      -0.0679674744606018,
      -0.05987490713596344,
      -0.09600942581892014,
      0.07404674589633942,
      -0.028155017644166946,
      -0.0889306515455246,
      -0.0045552500523626804,
      0.012823202647268772,
      0.0035519066732376814,
      -0.12381567806005478,
      0.028002409264445305,
      -0.02177347242832184,
      -0.07219251245260239,
      -0.04970795288681984,
      0.03692503273487091,
      0.03375086560845375,
      -0.02175932005047798,
      0.014758853241801262,
      0.04860594868659973,
      -0.03781918063759804,
      -0.0429813452064991,
      0.032991357147693634,
      0.03486788645386696,
      0.0036242837086319923,
      0.1087934598326683,
      0.007104088086634874,
      0.13490425050258636,
      -0.12706899642944336,
      0.03332371264696121,
      0.0490122064948082,
      0.06434586644172668,
      0.09705799072980881,
      0.06312093138694763,
      -0.010487906634807587,
      0.14765875041484833,
      -0.2549203932285309,
      0.005762127693742514,
      0.10902215540409088,
      0.05987807735800743,
      0.0531872883439064,
      0.04682794213294983,
      0.05226711928844452,
      0.16776679456233978,
      -0.24450019001960754,
      0.08127859234809875,
      0.08335009217262268,
      0.04785466194152832,
      -0.003920995630323887,
      0.023199861869215965,
      0.06969279795885086,
      0.2124924659729004,
      -0.18396107852458954,
      0.08915507048368454,
      0.0634625256061554,
      0.0425819531083107,
      0.012042838148772717,
      0.019528353586792946,
      0.051638197153806686,
      0.1519991159439087,
      -0.26257258653640747,
      0.06523320078849792,
      0.016963161528110504,
      0.0578165203332901,
      0.0008234967244789004,
      0.007807187270373106,
      0.03845208138227463,
      0.023499349132180214,
      -0.3144448399543762,
      0.052290983498096466,
      -0.027772285044193268,
      0.02105697989463806,
      0.0964243933558464,
      0.052113063633441925,
      0.07638911157846451,
      0.039320774376392365,
      -0.3030090034008026,
      0.023091373965144157,
      -0.1089029386639595,
      -0.021385325118899345,
      0.027642322704195976,
      -0.09683636575937271,
      0.07186472415924072,
      -0.12479478865861893,
      -0.2693842053413391,
      0.015844276174902916,
      -0.17567166686058044,
      -0.048053987324237823,
      0.07411524653434753,
      -0.1458650678396225,
      0.08768124878406525,
      -0.037744682282209396,
      -0.3152478337287903,
      -0.0826331377029419,
      -0.24339748919010162,
      -0.1212095394730568,
      -0.04493677243590355,
      -0.11655215919017792,
      -0.04390934482216835,
      -0.107638418674469,
      -0.22827735543251038,
      -0.14463505148887634,
      -0.20813634991645813,
      -0.1523447334766388,
      0.03608521446585655,
      -0.08994077146053314,
      -0.17036056518554688,
      -0.1436724066734314,
      -0.1348438858985901,
      -0.1660904586315155,
      -0.34226301312446594,
      -0.09654925763607025,
      0.08977745473384857,
      0.01161045953631401,
      -0.1618848294019699,
      -0.0766410157084465,
      -0.09424085915088654,
      -0.11206771433353424,
      -0.258313924074173,
      -0.06685605645179749,
      0.1525067389011383,
      0.04961297661066055,
      -0.06764921545982361,
      0.0765756294131279,
      -0.1643868237733841,
      -0.13055604696273804,
      -0.06771425157785416,
      -0.01599922589957714,
      0.06848537176847458,
      0.012689150869846344,
      -0.03897612541913986,
      0.02011457458138466,
      -0.12390091270208359,
      -0.023381780833005905,
      -0.060562290251255035,
      -0.01655922643840313,
      0.06002195551991463,
      0.03318648785352707,
      0.06307931244373322,
      0.04736362025141716,
      -0.05271907523274422,
      0.027667691931128502,
      -0.0817762017250061,
      -0.007710679434239864,
      0.09330892562866211,
      0.07766550034284592,
      -0.01967770978808403,
      0.07378339022397995,
      -0.07340504229068756,
      0.019812138751149178,
      -0.054487284272909164,
      0.01911897584795952,
      0.08656158298254013,
      0.021581003442406654,
      0.03580421954393387,
      0.11317254602909088,
      -0.11233845353126526,
      0.023832909762859344,
      0.02978098951280117,
      0.019044658169150352,
      0.08020193874835968,
      0.045729681849479675,
      0.018061304464936256,
      0.11498626321554184,
      -0.17972368001937866,
      0.05678218975663185,
      0.04367010295391083,
      0.05831066146492958,
      0.20138609409332275,
      0.09512972831726074,
      0.06455394625663757,
      0.1330394297838211,
      -0.18689656257629395,
      0.07557039707899094,
      0.09697145223617554,
      0.06299754232168198,
      0.09895523637533188,
      0.03723103180527687,
      0.10131919384002686,
      -0.03946599364280701,
      -0.21027356386184692,
      0.06325932592153549,
      0.11156813055276871,
      0.07157061994075775,
      3.9827900764066726e-05,
      -0.18289457261562347,
      0.06603115051984787,
      -0.06170402094721794,
      -0.021546179428696632,
      0.022956712171435356,
      0.005943525582551956,
      -0.0460243746638298,
      -0.047728925943374634,
      -0.06913276016712189,
      -0.007487292401492596,
      -0.0304279588162899,
      -0.03398759290575981,
      0.014786205254495144,
      -0.05461166426539421,
      0.01316027157008648,
      -0.018386296927928925,
      -0.01466530654579401,
      -0.007508190348744392,
      -0.023107295855879784,
      0.06417365372180939,
      -0.03149472549557686,
      -0.03380517661571503,
      -0.11527735739946365,
      -0.129139244556427,
      -0.09449625760316849,
      -0.09907195717096329,
      -0.09425011277198792,
      0.0476461686193943,
      -0.021306153386831284,
      -0.13186797499656677,
      -0.05454432591795921,
      -0.044974252581596375,
      0.03352516517043114,
      -0.004201474599540234,
      -0.014237958006560802,
      0.03383677080273628,
      -0.0543714314699173,
      -0.04787902534008026,
      0.06112460419535637,
      0.0775551125407219,
      0.06558950990438461,
      0.013597745448350906,
      0.06858828663825989,
      -0.04709902033209801,
      -0.02195901796221733,
      0.07537418603897095,
      0.04250331223011017,
      0.03872203454375267,
      0.09370771795511246,
      -0.017917899414896965,
      0.09938182681798935,
      -0.05054069310426712,
      0.03939276188611984,
      -0.11381826549768448,
      0.09092708677053452,
      0.07050198316574097,
      0.10272794961929321,
      0.01991153322160244,
      0.14074881374835968,
      -0.2438027411699295,
      0.034999482333660126,
      0.016315486282110214,
      0.07086741179227829,
      0.09660010784864426,
      0.0805862694978714,
      0.08782418072223663,
      0.19367475807666779,
      -0.3114525079727173,
      0.06787343323230743,
      -0.017909828573465347,
      0.04093703255057335,
      -0.0034702138509601355,
      0.05748552829027176,
      0.07211219519376755,
      0.0923861712217331,
      -0.3128243088722229,
      0.07606806606054306,
      0.027182674035429955,
      0.041812166571617126,
      0.0756838396191597,
      0.0347696878015995,
      0.05613318458199501,
      0.13410569727420807,
      -0.1873682290315628,
      0.04026441276073456,
      0.020158076658844948,
      0.013631564565002918,
      0.05624724552035332,
      0.0015426318859681487,
      0.05704737454652786,
      0.07546184211969376,
      -0.22261543571949005,
      0.05293811112642288,
      -0.008567176759243011,
      0.0091443145647645,
      0.07947670668363571,
      -0.01030804868787527,
      0.07218160480260849,
      0.09213101118803024,
      -0.1678033173084259,
      0.00083608936984092,
      -0.044659871608018875,
      -0.05058738589286804,
      -0.010089494287967682,
      -0.11562083661556244,
      0.04543519765138626,
      -0.12704262137413025,
      -0.3126583397388458,
      -0.06804680824279785,
      -0.03550557419657707,
      -0.11047495901584625,
      0.01321383472532034,
      -0.19103287160396576,
      0.0024316729977726936,
      -0.0019691491033881903,
      -0.2603975832462311,
      -0.10656344145536423,
      -0.249726802110672,
      -0.1487264186143875,
      0.04499933496117592,
      -0.10895900428295135,
      -0.08381025493144989,
      -0.2231254279613495,
      -0.3112357258796692,
      -0.17630261182785034,
      -0.30484330654144287,
      -0.17200982570648193,
      -0.02741805464029312,
      -0.04877617582678795,
      -0.14292120933532715,
      -0.10741658508777618,
      -0.273176372051239,
      -0.1858903169631958,
      -0.15408062934875488,
      -0.1265544891357422,
      -0.03388221189379692,
      0.00696249445900321,
      -0.10093755275011063,
      0.0386391282081604,
      -0.15316936373710632,
      -0.0942949503660202,
      -0.15977135300636292,
      -0.05108770728111267,
      0.10557661950588226,
      0.05184206739068031,
      -0.0940854549407959,
      0.1335027813911438,
      -0.12233828008174896,
      -0.08523408323526382,
      -0.14345262944698334,
      0.00601141108199954,
      0.11072789877653122,
      0.048938166350126266,
      -0.015036115422844887,
      -0.006256923079490662,
      -0.15622353553771973,
      -0.029174018651247025,
      -0.0035812072455883026,
      -0.014402033761143684,
      0.07848896831274033,
      0.05065915733575821,
      0.03790930286049843,
      0.05150169879198074,
      -0.14416557550430298,
      0.0185646191239357,
      -0.00172976846806705,
      0.03519639000296593,
      0.10794351994991302,
      0.0322372205555439,
      -0.062049780040979385,
      0.10637982189655304,
      -0.10972648113965988,
      -0.007989813573658466,
      -0.017143042758107185,
      0.04780407249927521,
      0.08795592188835144,
      0.051544178277254105,
      -0.0209953710436821,
      0.12954136729240417,
      -0.09294351935386658,
      0.03877336159348488,
      -0.01062320638448,
      0.023513466119766235,
      0.09487853199243546,
      0.11495709419250488,
      0.01642240770161152,
      0.10082782059907913,
      -0.06239227578043938,
      0.019742891192436218,
      0.05187804624438286,
      0.030304720625281334,
      0.1445547342300415,
      0.03389888256788254,
      0.07536157220602036,
      0.12951764464378357,
      -0.05899983271956444,
      0.02557286247611046,
      0.08748438209295273,
      0.06123392656445503,
      0.05944003537297249,
      -0.011540282517671585,
      0.030470658093690872,
      -0.07641052454710007,
      -0.10875418782234192,
      0.09945344179868698,
      0.05713161826133728,
      0.07138065993785858,
      -0.039149824529886246,
      -0.10231924057006836,
      0.06688256561756134,
      -0.13171912729740143,
      -0.0848536342382431,
      0.04253837466239929,
      -0.012275809422135353,
      -0.048673976212739944,
      -0.06767099350690842,
      -0.09717410057783127,
      -0.03472864627838135,
      -0.010253901593387127,
      -0.016414280980825424,
      -0.029306741431355476,
      -0.002043054671958089,
      -0.026863690465688705,
      -0.038059625774621964,
      -0.06636542081832886,
      -0.0092384722083807,
      0.01680641435086727,
      0.004602957051247358,
      -0.054263561964035034,
      -0.056734319776296616,
      -0.08419876545667648,
      -0.11637097597122192,
      -0.0900474488735199,
      -0.015986638143658638,
      -0.07266164571046829,
      0.024376366287469864,
      -0.10700695216655731,
      -0.07641833275556564,
      -0.0017675209091976285,
      -0.008703849278390408,
      -0.01131676509976387,
      0.009233124554157257,
      -0.0018994335550814867,
      -0.040660906583070755,
      0.004688912536948919,
      -0.0430770069360733,
      -0.018803128972649574,
      0.02793036960065365,
      0.044536106288433075,
      -0.003340356284752488,
      0.10986702889204025,
      0.013049147091805935,
      0.05339367315173149,
      -0.006879188120365143,
      0.019335759803652763,
      0.07883623987436295,
      0.060744330286979675,
      0.04358454421162605,
      0.10186516493558884,
      0.0010997322387993336,
      0.07108504325151443,
      -0.12105222046375275,
      0.024117372930049896,
      0.09948942065238953,
      0.058975666761398315,
      0.059837792068719864,
      0.11087741702795029,
      -0.16907508671283722,
      0.019638467580080032,
      -0.0935262069106102,
      0.08158894628286362,
      0.13784845173358917,
      0.06299576163291931,
      0.057852886617183685,
      0.1722075194120407,
      -0.30158594250679016,
      0.029364371672272682,
      -0.03412315249443054,
      0.05160010606050491,
      0.07521741837263107,
      0.03796674311161041,
      0.07865197211503983,
      0.09577438980340958,
      -0.25206831097602844,
      0.019987940788269043,
      -0.014593466185033321,
      0.0530918724834919,
      0.0690896213054657,
      0.005510773044079542,
      0.11899235844612122,
      0.12966129183769226,
      -0.23902852833271027,
      0.03775719553232193,
      0.022745179012417793,
      0.02803337387740612,
      0.05914688482880592,
      0.03246975317597389,
      0.08493273705244064,
      0.04533190652728081,
      -0.19545850157737732,
      0.06001817435026169,
      -0.059693776071071625,
      -0.03586587682366371,
      0.08125609159469604,
      -0.047495994716882706,
      0.05185524374246597,
      -0.026514429599046707,
      -0.28999319672584534,
      0.02607257291674614,
      -0.10982777178287506,
      -0.03696442395448685,
      0.06096590310335159,
      -0.10843352228403091,
      -0.019126402214169502,
      -0.02147202380001545,
      -0.23514947295188904,
      -0.079918272793293,
      -0.16526778042316437,
      -0.09782253950834274,
      0.06157473474740982,
      -0.09833572804927826,
      0.037017785012722015,
      -0.03325989097356796,
      -0.32766586542129517,
      -0.1376730501651764,
      -0.16381067037582397,
      -0.15638703107833862,
      0.04176655784249306,
      -0.03969591483473778,
      -0.09230563044548035,
      -0.10614951699972153,
      -0.24276873469352722,
      -0.1597856879234314,
      -0.09261663258075714,
      -0.11880983412265778,
      0.03974926471710205,
      -0.11741738021373749,
      -0.1494699865579605,
      0.016981618478894234,
      -0.3851337432861328,
      -0.10533243417739868,
      -0.05889054760336876,
      -0.0725061371922493,
      -0.044537268579006195,
      -0.0531553216278553,
      -0.10872425884008408,
      0.08486930280923843,
      -0.31387859582901,
      -0.04074520245194435,
      -0.08428186178207397,
      -0.03513273969292641,
      0.03975874185562134,
      0.019721951335668564,
      -0.114996038377285,
      0.07658033072948456,
      -0.28260302543640137,
      -0.02806459181010723,
      -0.08603072911500931,
      -0.006129085086286068,
      0.0851573571562767,
      0.011383402161300182,
      -0.025290021672844887,
      0.018590305000543594,
      -0.28686612844467163,
      -0.0015403182478621602,
      -0.04569869488477707,
      0.01938026212155819,
      0.09781795740127563,
      0.034348227083683014,
      0.0009005690808407962,
      0.04285934939980507,
      -0.15100406110286713,
      -0.008724767714738846,
      -0.11625118553638458,
      0.019615646451711655,
      0.10700592398643494,
      0.056754350662231445,
      -0.01990942843258381,
      0.10541591048240662,
      -0.07551367580890656,
      0.010585921816527843,
      -0.052316535264253616,
      -0.017201120033860207,
      0.055331338196992874,
      0.03258291259407997,
      -0.012625441886484623,
      0.10612749308347702,
      -0.022368891164660454,
      -0.029725482687354088,
      -0.011477299965918064,
      0.032710619270801544,
      0.15709032118320465,
      0.10889623314142227,
      0.054163768887519836,
      0.16548389196395874,
      -0.010914301499724388,
      -0.016411542892456055,
      -0.03734446316957474,
      0.05513622611761093,
      0.10176496207714081,
      0.05963116139173508,
      0.01885530911386013,
      -0.016179628670215607,
      -0.00649038003757596,
      0.0010806249920278788,
      0.0447126068174839,
      0.0551852248609066,
      0.022979414090514183,
      -0.07011116296052933,
      0.04211864247918129,
      -0.06526020914316177,
      -0.0704866275191307,
      0.05225295573472977,
      -0.0061168791726231575,
      0.060120970010757446,
      -0.09595424681901932,
      -0.0822719857096672,
      0.11648811399936676,
      -0.12477541714906693,
      -0.03096098080277443,
      0.046801645308732986,
      -0.11619201302528381,
      -0.09478462487459183,
      -0.007107067853212357,
      -0.010163544677197933,
      -0.07776489108800888,
      -0.0076324474066495895,
      0.049787722527980804,
      -0.12676215171813965,
      -0.022765249013900757,
      -0.028424078598618507,
      -0.014380767941474915,
      -0.07577038556337357,
      -0.019941700622439384,
      -0.0147436847910285,
      0.02991686761379242,
      -0.06688015908002853,
      -0.028603043407201767,
      -0.005013413727283478,
      -0.049377236515283585,
      -0.10686354339122772,
      -0.06334614753723145,
      -0.07543547451496124,
      0.0014717598678544164,
      -0.10238884389400482,
      -0.04191896319389343,
      -0.0020799636840820312,
      0.013218683190643787,
      -0.005748544819653034,
      -0.017960451543331146,
      0.03739267960190773,
      -0.07793797552585602,
      -0.001273676985874772,
      0.008759329095482826,
      -0.008900006301701069,
      0.0346771776676178,
      0.038826242089271545,
      -0.046032119542360306,
      0.08649291098117828,
      -0.011104104109108448,
      0.014459261670708656,
      -0.005660028196871281,
      0.017025761306285858,
      0.04898051172494888,
      0.013206820003688335,
      0.02667895331978798,
      0.04851566255092621,
      -0.06946629285812378,
      0.02116956189274788,
      0.005123675335198641,
      0.044818878173828125,
      0.05161147564649582,
      0.03775107115507126,
      0.0689258798956871,
      0.08926714211702347,
      -0.03385607525706291,
      0.06136924773454666,
      -0.062098179012537,
      0.008254335261881351,
      0.09213656932115555,
      0.029361145570874214,
      0.07110819220542908,
      0.11351574212312698,
      -0.12500090897083282,
      0.017573650926351547,
      -0.020513076335191727,
      0.04851478338241577,
      0.10364020615816116,
      0.025393716990947723,
      0.051901351660490036,
      0.06087687611579895,
      -0.2703366279602051,
      0.02653251588344574,
      -0.0360448993742466,
      0.027721863240003586,
      0.0592506043612957,
      0.05089415982365608,
      0.04217412322759628,
      0.10174009203910828,
      -0.3623603284358978,
      0.05716338008642197,
      -0.010407243855297565,
      0.03787801042199135,
      0.0010582252871245146,
      -0.00503950472921133,
      0.06869950145483017,
      0.03177845478057861,
      -0.42268967628479004,
      0.031471047550439835,
      0.0421866849064827,
      0.022617962211370468,
      0.016316018998622894,
      -0.039639223366975784,
      0.05931901931762695,
      0.061156950891017914,
      -0.4288467466831207,
      0.0011465930147096515,
      0.024576036259531975,
      -0.02951667457818985,
      -0.017294401302933693,
      -0.08872402459383011,
      0.008655151352286339,
      0.03295544907450676,
      -0.3172498345375061,
      -0.06443898379802704,
      -0.04185973480343819,
      -0.11856202036142349,
      -0.01812632568180561,
      -0.17077966034412384,
      0.013814478181302547,
      -0.029913991689682007,
      -0.28447291254997253,
      -0.08931871503591537,
      -0.11450658738613129,
      -0.11794092506170273,
      0.005275683011859655,
      -0.08498780429363251,
      -0.13639891147613525,
      -0.0013845202047377825,
      -0.2638305127620697,
      -0.15270577371120453,
      -0.13010235130786896,
      -0.11027339100837708,
      0.04101000353693962,
      -0.036804087460041046,
      -0.12726932764053345,
      0.08611796796321869,
      -0.2821260690689087,
      -0.12982703745365143,
      -0.04585232585668564,
      -0.06659486889839172,
      0.04909611865878105,
      0.020927896723151207,
      -0.1229291558265686,
      0.025483880192041397,
      -0.34815242886543274,
      -0.09208603203296661,
      -0.09963729977607727,
      -0.06739428639411926,
      0.01845836639404297,
      -0.013358295895159245,
      -0.04201783612370491,
      0.019267424941062927,
      -0.3934646546840668,
      -0.0006693987525068223,
      -0.1518339067697525,
      -0.013026731088757515,
      0.016499865800142288,
      0.017836248502135277,
      -0.0265235286206007,
      0.006430331617593765,
      -0.16087503731250763,
      0.009623614139854908,
      -0.06798458099365234,
      0.012518992647528648,
      0.05405997112393379,
      0.02893068641424179,
      0.00458869431167841,
      0.14780710637569427,
      -0.04298253357410431,
      -0.008251698687672615,
      -0.07625264674425125,
      0.0279180109500885,
      0.11535590887069702,
      0.05326263979077339,
      -0.02063765563070774,
      0.0874553993344307,
      -0.11589600890874863,
      0.014027425087988377,
      -0.02736832946538925,
      -0.02579413913190365,
      -0.004864698275923729,
      0.03635577857494354,
      0.04650890454649925,
      0.0489848330616951,
      -0.09239865839481354,
      -0.0038108867593109608,
      -0.02870865911245346,
      0.017545532435178757,
      0.07863800972700119,
      0.034208234399557114,
      0.0347556471824646,
      0.15672171115875244,
      -0.12838397920131683,
      0.023834777995944023,
      -0.04574669152498245,
      0.009019647724926472,
      0.04868699610233307,
      0.02334742806851864,
      0.03200535103678703,
      -0.010248209349811077,
      0.033362068235874176,
      0.014350633136928082,
      0.026604853570461273,
      0.056028857827186584,
      0.02526143379509449,
      -0.019777344539761543,
      0.07909374684095383,
      -0.07271795719861984,
      0.010645654983818531,
      -0.0033485412131994963,
      0.08835744112730026,
      -0.0021110831294208765,
      -0.004509277176111937,
      -0.09473802149295807,
      0.0826544538140297,
      -0.059696637094020844,
      0.016085496172308922,
      -0.008237984031438828,
      -0.1143580973148346,
      -0.0934830904006958,
      0.043294671922922134,
      0.009277820587158203,
      -0.13853251934051514,
      0.09262757748365402,
      0.008493100292980671,
      -0.11855517327785492,
      -0.057975947856903076,
      -0.0478362999856472,
      -0.036535292863845825,
      -0.020500758662819862,
      0.02292688749730587,
      0.015045561827719212,
      0.027295241132378578,
      -0.0341627337038517,
      -0.058038391172885895,
      -0.08147712051868439,
      -0.10562913119792938,
      -0.10875292122364044,
      -0.08129775524139404,
      -0.11840958148241043,
      -0.010280818678438663,
      -0.027928097173571587,
      -0.12200004607439041,
      0.0018256253097206354,
      -0.0110591109842062,
      0.002098142635077238,
      -0.004025421105325222,
      0.049265485256910324,
      0.10365884006023407,
      0.005546580534428358,
      -0.007869288325309753,
      0.02841206267476082,
      0.06749604642391205,
      0.05416231229901314,
      -0.06675447523593903,
      0.03298414498567581,
      0.05635177716612816,
      0.039948247373104095,
      -0.1058426946401596,
      0.0541754849255085,
      0.03216595575213432,
      0.024368271231651306,
      0.005739639513194561,
      0.06325040012598038,
      -0.07083824276924133,
      0.011428751982748508,
      -0.028216682374477386,
      0.028720716014504433,
      0.03119763173162937,
      0.02493332140147686,
      0.06741016358137131,
      0.06446363031864166,
      -0.06912078708410263,
      0.0352654755115509,
      -0.025985276326537132,
      0.051855817437171936,
      0.06760050356388092,
      0.009732059203088284,
      0.03014787659049034,
      0.02367018349468708,
      -0.0988299772143364,
      0.026053156703710556,
      0.05201045423746109,
      0.04724752530455589,
      0.1245822086930275,
      0.036958687007427216,
      0.09449954330921173,
      0.06655586510896683,
      -0.1599813997745514,
      0.033843133598566055,
      0.016935179010033607,
      0.05234833061695099,
      0.12529245018959045,
      0.04395439103245735,
      0.03686640411615372,
      0.07150034606456757,
      -0.22580528259277344,
      0.021939707919955254,
      -0.01275423914194107,
      0.03484950587153435,
      0.10106389969587326,
      -0.008664143271744251,
      0.06558184325695038,
      0.04840270057320595,
      -0.4698706865310669,
      0.00493767112493515,
      0.04566574841737747,
      0.0008368943235836923,
      0.05278687924146652,
      -0.03497575968503952,
      0.049186233431100845,
      0.029365884140133858,
      -0.49599984288215637,
      0.014498678036034107,
      -0.004494670312851667,
      -0.04946867749094963,
      -0.07730274647474289,
      -0.1533004194498062,
      0.02170100435614586,
      -0.06266865134239197,
      -0.4458431601524353,
      -0.02389063872396946,
      -0.08500275015830994,
      -0.1526389718055725,
      -0.051200125366449356,
      -0.1264825165271759,
      -0.037626445293426514,
      -0.07877088338136673,
      -0.4016444981098175,
      -0.13148613274097443,
      -0.16044560074806213,
      -0.12086144089698792,
      -0.006287797354161739,
      -0.033034391701221466,
      -0.08788059651851654,
      0.025940021499991417,
      -0.3579535186290741,
      -0.11459724605083466,
      -0.08591685444116592,
      -0.11089631170034409,
      0.029544087126851082,
      0.0230069849640131,
      -0.1408219337463379,
      0.05624018609523773,
      -0.26926901936531067,
      -0.10747333616018295,
      -0.08464150875806808,
      -0.07462647557258606,
      -0.04335489124059677,
      -0.05065664276480675,
      -0.09270365536212921,
      0.07189083099365234,
      -0.22147011756896973,
      -0.02569284476339817,
      -0.09769122302532196,
      -0.021588876843452454,
      0.02495838887989521,
      -0.058136072009801865,
      -0.02561090886592865,
      0.060888756066560745,
      -0.04197104647755623,
      -0.03586197271943092,
      -0.06443317234516144,
      -0.06823872029781342,
      -0.021217558532953262,
      -0.018249087035655975,
      0.024534128606319427,
      0.121660977602005,
      0.031649306416511536,
      -0.014033619314432144,
      -0.13133743405342102,
      -0.046143800020217896,
      0.04478555545210838,
      0.02133689634501934,
