[
  {
    "type": "Convolution",
    "kernel": [
      [
        -0.9929243922233582,
        -0.8011944890022278,
        -0.7447294592857361
      ],
      [
        0.15259268879890442,
        0.21824580430984497,
        0.052238717675209045
      ],
      [
        0.6454405784606934,
        0.4710220396518707,
        0.43345892429351807
      ]
    ],
    "bias": 0.027174415066838264
  },
  {
    "type": "Convolution",
    "kernel": [
      [
        -0.07968311756849289,
        0.20930378139019012,
        -0.2550966441631317
      ],
      [
        0.17339585721492767,
        0.24704045057296753,
        -0.21028752624988556
      ],
      [
        0.23299667239189148,
        0.2655591368675232,
        -0.0007334245601668954
      ]
    ],
    "bias": -0.028267640620470047
  },
  {
    "type": "Convolution",
    "kernel": [
      [
        -0.17551101744174957,
        0.004259196575731039,
        0.6037808060646057
      ],
      [
        0.018498100340366364,
        -0.28181877732276917,
        -0.1557016521692276
      ],
      [
        0.2692769169807434,
        0.06239804998040199,
        -0.440807580947876
      ]
    ],
    "bias": 0.0024197229649871588
  },
  {
    "type": "Convolution",
    "kernel": [
      [
        -0.14451028406620026,
        0.13408705592155457,
        0.17191468179225922
      ],
      [
        -0.04619953781366348,
        0.394826740026474,
        -0.09973321110010147
      ],
      [
        0.16277500987052917,
        -0.19821514189243317,
        0.27681228518486023
      ]
    ],
    "bias": -0.04344107210636139
  },
  {
    "type": "Convolution",
    "kernel": [
      [
        0.27798038721084595,
        0.3303009569644928,
        -0.6590990424156189
      ],
      [
        0.17647969722747803,
        0.08934253454208374,
        -0.6166181564331055
      ],
      [
        0.48132431507110596,
        0.13162469863891602,
        -0.28520315885543823
      ]
    ],
    "bias": -0.006523682735860348
  },
  {
    "type": "Convolution",
    "kernel": [
      [
        -0.03464953601360321,
        0.3470834493637085,
        -0.13166780769824982
      ],
      [
        0.07198907434940338,
        0.23558954894542694,
        0.12295538187026978
      ],
      [
        -0.030262527987360954,
        -0.05497507005929947,
        0.15458336472511292
      ]
    ],
    "bias": -0.019066931679844856
  },
  {
    "type": "Convolution",
    "kernel": [
      [
        0.51298987865448,
        0.28627538681030273,
        -0.14644049108028412
      ],
      [
        0.5199406147003174,
        0.3898259997367859,
        -0.6544928550720215
      ],
      [
        -0.034409116953611374,
        -0.6524670124053955,
        -0.8961681723594666
      ]
    ],
    "bias": -0.00034298282116651535
  },
  {
    "type": "Convolution",
    "kernel": [
      [
        0.7515144348144531,
        0.16226226091384888,
        -1.2961632013320923
      ],
      [
        0.39968782663345337,
        0.0010536619229242206,
        -1.0028698444366455
      ],
      [
        -0.36692434549331665,
        -1.0478774309158325,
        -0.3950601816177368
      ]
    ],
    "bias": 0.19542673230171204
  },
  {
    "type": "Dense",
    "weights": [
      -0.0049722157418727875,
      -0.003928808029741049,
      0.016635596752166748,
      -4.99847847095225e-05,
      -0.06908277422189713,
      -0.016798870638012886,
      0.011361202225089073,
      0.02168230339884758,
      0.03633974492549896,
      0.01422481331974268,
      0.018460430204868317,
      0.034743890166282654,
      -0.02197970263659954,
      0.06425093859434128,
      -0.01771824061870575,
      -0.0067308698780834675,
      0.03561429679393768,
      0.016861267387866974,
      0.004557764157652855,
      -0.008302825503051281,
      -0.060518473386764526,
      -0.0021653268486261368,
      0.008476249873638153,
      -0.033045776188373566,
      0.013746612705290318,
      0.032985519617795944,
      0.06238305941224098,
      0.026814443990588188,
      0.04197072237730026,
      -0.016238991171121597,
      -0.03551069274544716,
      0.0011320014018565416,
      0.002878266852349043,
      -0.0008924296707846224,
      0.057817619293928146,
      -0.036904796957969666,
      0.015431622974574566,
      -0.003058825386688113,
      0.004747940227389336,
      -0.0027838528621941805,
      -0.012073425576090813,
      -0.02446162700653076,
      0.014960023574531078,
      0.01614236645400524,
      -0.01507774367928505,
      0.025038763880729675,
      0.018931634724140167,
      -0.029996702447533607,
      -0.029620839282870293,
      -0.043705809861421585,
      0.008549673482775688,
      -0.09112043678760529,
      -0.06761562079191208,
      -0.06597527861595154,
      0.006166233215481043,
      -0.023859472945332527,
      -0.05527982488274574,
      -0.03745804727077484,
      -0.010293059051036835,
      -0.11064411699771881,
      -0.027139844372868538,
      -0.1666765809059143,
      0.025475015863776207,
      -0.027720743790268898,
      -0.03847067430615425,
      -0.1356050968170166,
      -0.025233812630176544,
      -0.14724524319171906,
      -0.06666569411754608,
      -0.18328246474266052,
      0.012808035127818584,
      0.017684955149888992,
      -0.05619852989912033,
      -0.16632550954818726,
      -0.06196349486708641,
      -0.1465945690870285,
      -0.2062779664993286,
      -0.059657372534275055,
      0.027175208553671837,
      0.013994896784424782,
      -0.09413859248161316,
      -0.1414777934551239,
      -0.11746550351381302,
      -0.08542917668819427,
      -0.23576728999614716,
      -0.045343946665525436,
      -0.0008579844725318253,
      -0.02237682230770588,
      -0.0929693803191185,
      -0.08501648902893066,
      -0.1522267609834671,
      -0.11088869720697403,
      -0.20707117021083832,
      -0.06994124501943588,
      0.01296943984925747,
      0.028507282957434654,
      -0.12182693183422089,
      -0.07731369137763977,
      -0.11419562995433807,
      -0.127110555768013,
      -0.11098600178956985,
      -0.14016315340995789,
      0.05727672204375267,
      0.019380494952201843,
      -0.1586495041847229,
      -0.20943421125411987,
      -0.13229073584079742,
      -0.28070634603500366,
      -0.17597246170043945,
      -0.1633187234401703,
      0.038399361073970795,
      -0.009466956369578838,
      -0.1498730182647705,
      -0.22885797917842865,
      -0.18007445335388184,
      -0.13346442580223083,
      -0.2296290248632431,
      -0.010758373886346817,
      0.03204001113772392,
      -0.023291990160942078,
      -0.14065612852573395,
      -0.09370355308055878,
      -0.2349487841129303,
      -0.05991116166114807,
      -0.33821240067481995,
      0.008497348986566067,
      0.057958077639341354,
      0.012369728647172451,
      -0.11829719692468643,
      -0.02310994826257229,
      -0.21451230347156525,
      -0.03624514862895012,
      -0.2051548808813095,
      0.034330662339925766,
      0.09312312304973602,
      0.016227127984166145,
      -0.09025876224040985,
      -0.11366821080446243,
      -0.1886364221572876,
      -0.23345167934894562,
      -0.29720962047576904,
      0.01267712377011776,
      0.02527478337287903,
      0.026839660480618477,
      -0.0300091952085495,
      -0.15928861498832703,
      -0.10490734875202179,
      -0.19239865243434906,
      -0.24039360880851746,
      -0.0994381532073021,
      -0.01010085642337799,
      0.023533789440989494,
      -0.01806761883199215,
      -0.08180157840251923,
      -0.08637529611587524,
      -0.10069521516561508,
      -0.18904508650302887,
      -0.024895520880818367,
      -0.029485946521162987,
      0.031025972217321396,
      0.005800397600978613,
      -0.07232475280761719,
      -0.0627058669924736,
      -0.07754674553871155,
      -0.1689785271883011,
      -0.05591823533177376,
      -0.021904584020376205,
      0.0151276970282197,
      -0.033560991287231445,
      -0.04963870719075203,
      0.012514900416135788,
      -0.0008845769916661084,
      -0.07581961899995804,
      0.015838947147130966,
      -0.031764548271894455,
      0.002535733161494136,
      0.027652036398649216,
      -0.046983491629362106,
      -0.0016334722749888897,
      -0.061368126422166824,
      -0.09276755899190903,
      0.010547393932938576,
      -0.01500792894512415,
      0.011036094278097153,
      0.004080208484083414,
      -0.03240734338760376,
      0.022103333845734596,
      0.002653474686667323,
      -0.07311803847551346,
      -0.00830515194684267,
      -0.010568302124738693,
      0.017299747094511986,
      -0.014997893013060093,
      -0.026832399889826775,
      0.016792653128504753,
      0.01640317030251026,
      -0.060460761189460754,
      -0.01916171796619892,
      0.016052190214395523,
      -0.01009526289999485,
      0.036625538021326065,
      -0.04292573407292366,
      -0.014321481809020042,
      -0.035578303039073944,
      -0.047127675265073776,
      -0.0011865252163261175,
      0.02467762865126133,
      0.00899097416549921,
      0.03242877498269081,
      -0.013202826492488384,
      0.02539210580289364,
      0.023884903639554977,
      -0.030071940273046494,
      -0.02451983653008938,
      -0.003143278183415532,
      -0.016539854928851128,
      0.029430774971842766,
      -0.00704935984686017,
      0.01074537355452776,
      0.06826882809400558,
      -0.04023786634206772,
      0.050551652908325195,
      -0.034840889275074005,
      -0.0017745749792084098,
      0.027402590960264206,
      0.03907053545117378,
      0.029818188399076462,
      -0.03776157274842262,
      -0.032137636095285416,
      0.027355918660759926,
      -0.019001957029104233,
      -0.009944221004843712,
      0.020392123609781265,
      0.05404037609696388,
      0.07373815774917603,
      -0.01207031961530447,
      0.04257965832948685,
      -0.037453923374414444,
      0.0044580972753465176,
      0.011943796649575233,
      -0.023129334673285484,
      -0.044504597783088684,
      -0.02211666665971279,
      -0.10273275524377823,
      0.008036970160901546,
      -0.08973422646522522,
      -0.014330822974443436,
      0.0014898442896082997,
      -0.07433436065912247,
      -0.061447806656360626,
      -0.050253864377737045,
      -0.12376078963279724,
      -0.054078977555036545,
      -0.09481500089168549,
      -0.029492026194930077,
      -0.010390643030405045,
      -0.06456620246171951,
      -0.10784608870744705,
      -0.029041316360235214,
      -0.08642591536045074,
      -0.07573501020669937,
      -0.10608729720115662,
      -0.012722112238407135,
      0.017791764810681343,
      -0.0625530332326889,
      -0.07454730570316315,
      -0.12908196449279785,
      -0.14983806014060974,
      -0.18659892678260803,
      -0.14907097816467285,
      -0.022051574662327766,
      0.016659017652273178,
      -0.04691203683614731,
      -0.10618800669908524,
      -0.07914479076862335,
      0.035897396504879,
      -0.056360356509685516,
      -0.0266665481030941,
      0.018039869144558907,
      -0.027538400143384933,
      -0.024084439501166344,
      -0.05490102991461754,
      -0.13124102354049683,
      -0.04820554703474045,
      -0.14317333698272705,
      -0.08940616250038147,
      -0.00800476036965847,
      -0.017818232998251915,
      -0.0066190748475492,
      -0.05627861246466637,
      0.0130616445094347,
      -0.05666766315698624,
      -0.039112210273742676,
      -0.09179504215717316,
      -0.05496393144130707,
      0.008098484948277473,
      0.0029027925338596106,
      -0.022654805332422256,
      -0.03449903056025505,
      0.009043366648256779,
      -0.04328399524092674,
      0.001822338905185461,
      -0.02122456207871437,
      0.012735432013869286,
      -0.02241065539419651,
      0.006251024082303047,
      -0.03384177386760712,
      -0.06719246506690979,
      -0.03892238438129425,
      -0.07305628061294556,
      0.033296480774879456,
      0.042520202696323395,
      -0.017529470846056938,
      -0.053489454090595245,
      0.08373436331748962,
      -0.06539831310510635,
      0.08451269567012787,
      -0.16913045942783356,
      0.01825346052646637,
      -0.026604337617754936,
      0.02181486040353775,
      -0.061175838112831116,
      0.09687704592943192,
      0.0034407945349812508,
      0.04213396832346916,
      -0.15132774412631989,
      -0.028552088886499405,
      -0.0031213327310979366,
      -0.03503411263227463,
      -0.048248350620269775,
      0.014777351170778275,
      6.625824880757136e-06,
      0.025676719844341278,
      0.009998134337365627,
      0.05492471903562546,
      -0.02558278851211071,
      0.009762127883732319,
      -0.010863864794373512,
      -0.036728646606206894,
      -0.03358113765716553,
      0.05477067828178406,
      -0.09902531653642654,
      0.04725850746035576,
      0.04037082940340042,
      0.04270186647772789,
      0.0018031999934464693,
      0.002852346980944276,
      -0.01947859860956669,
      0.08829213678836823,
      -0.16622750461101532,
      0.013975964859127998,
      0.007137968670576811,
      0.013444941490888596,
      -0.050994567573070526,
      -0.0635918378829956,
      -0.036152224987745285,
      -0.046590883284807205,
      -0.13009892404079437,
      0.024454932659864426,
      0.011038629338145256,
      -0.015941698104143143,
      -0.08593636751174927,
      -0.0648893415927887,
      -0.1913248598575592,
      -0.06686756759881973,
      -0.17020182311534882,
      -0.0052021401934325695,
      -0.007462760433554649,
      -0.03593634441494942,
      -0.07866116613149643,
      -0.03941400721669197,
      -0.021558813750743866,
      -0.008777998387813568,
      -0.08379015326499939,
      0.02947106771171093,
      0.02318505570292473,
      -0.07899615913629532,
      -0.1396503895521164,
      -0.1403130143880844,
      -0.08672895282506943,
      -0.17703811824321747,
      -0.08544205874204636,
      0.0270609762519598,
      0.025783753022551537,
      -0.02585679292678833,
      -0.06957501173019409,
      -0.11388499289751053,
      -0.019469862803816795,
      -0.22715871036052704,
      -0.02217732183635235,
      -0.0082332668825984,
      -0.019354531541466713,
      -0.003010038286447525,
      -0.057986386120319366,
      -0.025117551907896996,
      -0.02877102605998516,
      -0.041234083473682404,
      0.008179379627108574,
      -0.022204013541340828,
      -0.03384049981832504,
      0.025930296629667282,
      -0.026703232899308205,
      -0.02533317543566227,
      -0.019306126981973648,
      -0.012749363668262959,
      -0.03573654964566231,
      0.004632194526493549,
      0.003024941310286522,
      0.03830287605524063,
      0.000674271781463176,
      0.013836393132805824,
      0.029450228437781334,
      0.04164237156510353,
      0.006834778003394604,
      -0.029426533728837967,
      -0.014300144277513027,
      0.008345498703420162,
      0.0037944691721349955,
      0.021668966859579086,
      0.005540677811950445,
      -0.07341578602790833,
      -0.0014379556523635983,
      -0.014712480828166008,
      -0.02756207436323166,
      -0.027257023379206657,
      -0.03192642703652382,
      0.0007318077841773629,
      0.026576612144708633,
      -0.040481436997652054,
      0.08026077598333359,
      0.02483675256371498,
      -0.018116049468517303,
      -0.02105352096259594,
      0.03471866622567177,
      0.03453928232192993,
      0.04160914942622185,
      -0.036260511726140976,
      0.030918028205633163,
      -0.007806001231074333,
      0.0018644410884007812,
      -0.07287684828042984,
      -0.02356647327542305,
      0.020533816888928413,
      -0.13963809609413147,
      0.06463490426540375,
      -0.04504784941673279,
      0.028194937855005264,
      0.03651474788784981,
      -0.07261258363723755,
      -0.1408260613679886,
      -0.08995497971773148,
      -0.12168923020362854,
      -0.13360841572284698,
      -0.13814418017864227,
      -0.007272196002304554,
      -0.020662007853388786,
      -0.0868610292673111,
      -0.12608303129673004,
      -0.09188932925462723,
      -0.04470360279083252,
      -0.14783647656440735,
      -0.12186838686466217,
      0.007759513333439827,
      -0.01413634978234768,
      -0.04891950637102127,
      -0.12725506722927094,
      -0.07767514884471893,
      -0.10127521306276321,
      -0.05834357440471649,
      -0.08990689367055893,
      -0.0044919345527887344,
      0.0030523131135851145,
      0.01790633611381054,
      -0.0735216811299324,
      -0.10692315548658371,
      0.002972301794216037,
      -0.11904855072498322,
      -0.03493090718984604,
      0.01609964482486248,
      -0.011117599904537201,
      0.025344543159008026,
      0.012882933020591736,
      -0.059220071882009506,
      -0.07936690747737885,
      -0.101845383644104,
      -0.07579361647367477,
      0.003937182016670704,
      0.0021194936707615852,
      0.08530491590499878,
      -0.03356820344924927,
      -0.0927860289812088,
      0.033291853964328766,
      -0.16904613375663757,
      -0.03143806755542755,
      -0.03443232551217079,
      -0.00108585215639323,
      0.0039926553145051,
      -0.025850767269730568,
      0.016212422400712967,
      -0.03242059051990509,
      0.03822924941778183,
      -0.06222566217184067,
      -0.06267204880714417,
      -0.012870538979768753,
      0.040947478264570236,
      -0.03234778717160225,
      0.06388242542743683,
      -0.03408263623714447,
      -0.017928533256053925,
      -0.02686861716210842,
      -0.020074734464287758,
      -0.02735152840614319,
      0.02120007388293743,
      -0.042824797332286835,
      -0.00858202762901783,
      -0.06076861545443535,
      -0.004024838097393513,
      -0.03306813910603523,
      -0.07999115437269211,
      0.029198231175541878,
      -0.016077077016234398,
      -0.013336725533008575,
      -0.02348186820745468,
      0.012732326053082943,
      0.017184335738420486,
      -0.030665677040815353,
      -0.02189452573657036,
      -0.02774360403418541,
      -0.022224292159080505,
      -0.0467827282845974,
      0.0861235186457634,
      -0.09998621791601181,
      -0.05418386682868004,
      -0.08990815281867981,
      -0.13221409916877747,
      -0.035567544400691986,
      0.03717995062470436,
      -0.06604917347431183,
      -0.0022556318435817957,
      0.0016748352209106088,
      -0.017744679003953934,
      0.024995533749461174,
      -0.144815593957901,
      -0.05353081226348877,
      0.04792508855462074,
      0.01887071505188942,
      -0.05999384820461273,
      -0.004920059349387884,
      -0.14886058866977692,
      -0.02513868920505047,
      -0.0631718784570694,
      -0.023385943844914436,
      0.06846737116575241,
      0.063131183385849,
      0.005323529709130526,
      0.016624998301267624,
      0.0600297711789608,
      -0.06465674936771393,
      -0.11879712343215942,
      -0.017112258821725845,
      0.08204648643732071,
      0.02722061797976494,
      0.10044656693935394,
      -0.04456932470202446,
      0.06618465483188629,
      -0.09884757548570633,
      -0.17433318495750427,
      -0.044109247624874115,
      0.026576941832900047,
      -0.006723726633936167,
      0.024910293519496918,
      -0.007909290492534637,
      0.09632221609354019,
      -0.11216044425964355,
      -0.08030900359153748,
      -0.05315140262246132,
      -0.013356723822653294,
      -0.006083506625145674,
      -0.01968073658645153,
      -0.08003513514995575,
      0.004258149769157171,
      -0.09239550679922104,
      0.060680389404296875,
      -0.004591768141835928,
      0.00876178964972496,
      -0.005871162749826908,
      0.016659731045365334,
      -0.10393811762332916,
      0.02190432697534561,
      -0.14942169189453125,
      -0.04366812855005264,
      -0.019698116928339005,
      0.017413591966032982,
      0.0012567659141495824,
      0.05086829885840416,
      -0.04097508639097214,
      0.05947369337081909,
      -0.09037069231271744,
      0.012395612895488739,
      -0.03441222384572029,
      -0.024202918633818626,
      -0.08157245814800262,
      -0.0768267959356308,
      -0.0367906428873539,
      -0.028985168784856796,
      -0.0252626184374094,
      0.029499726369976997,
      -0.02867315709590912,
      0.0054845791310071945,
      -0.07125580310821533,
      -0.0955924391746521,
      -0.06652301549911499,
      -0.08329727500677109,
      -0.009131424129009247,
      0.00782530102878809,
      -0.006205149460583925,
      -0.009286122396588326,
      -0.05261789634823799,
      -0.04834600165486336,
      -0.06260938942432404,
      -0.1192057877779007,
      -0.028987577185034752,
      0.0358051098883152,
      0.016244789585471153,
      -0.0037625329568982124,
      -0.04621092975139618,
      -0.013776222243905067,
      0.024508172646164894,
      -0.05256948992609978,
      -0.0008247124496847391,
      -0.000486541714053601,
      -0.025117453187704086,
      -0.030473336577415466,
      -0.03503231331706047,
      0.06082179769873619,
      0.07801344245672226,
      -0.03017020784318447,
      0.003034490393474698,
      0.009776784107089043,
      0.0013033895520493388,
      -0.034629132598638535,
      0.062354881316423416,
      0.08718808740377426,
      -0.05469125136733055,
      0.0731380432844162,
      -0.05738358199596405,
      0.03404105082154274,
      0.00324422144331038,
      -0.07092853635549545,
      -0.10913438349962234,
      0.036306895315647125,
      -0.17887990176677704,
      0.09628310054540634,
      -0.15722504258155823,
      0.05057208612561226,
      -0.008045676164329052,
      -0.010674810037016869,
      -0.1424444615840912,
      -0.004809810779988766,
      -0.04903474450111389,
      -0.08266400545835495,
      -0.05809997394680977,
      -0.03808685764670372,
      0.00842762365937233,
      -0.03411044925451279,
      -0.10083889961242676,
      -0.10028539597988129,
      -0.14011172950267792,
      -0.17527922987937927,
      -0.10248981416225433,
      -0.03802819550037384,
      0.0050208680331707,
      0.013255899772047997,
      -0.031768783926963806,
      -0.0634666234254837,
      -0.03954603895545006,
      -0.1941118985414505,
      -0.05138525739312172,
      0.010792448185384274,
      0.020611943677067757,
      0.06307943910360336,
      -0.038439199328422546,
      -0.06679439544677734,
      -0.0505177266895771,
      -0.11454296112060547,
      0.004275078419595957,
      -0.025068840011954308,
      0.05635340139269829,
      0.03139088302850723,
      0.0018029834609478712,
      -0.060123659670352936,
      0.04528713971376419,
      -0.06893016397953033,
      -0.005721062421798706,
      -0.04881301149725914,
      -0.0012034402461722493,
      0.029163192957639694,
      0.01885969750583172,
      0.00506978714838624,
      -0.04711982607841492,
      -0.18498781323432922,
      -0.014418933540582657,
      -0.12901638448238373,
      0.0467614084482193,
      -0.04300304874777794,
      0.04186492785811424,
      -0.05276750773191452,
      -0.022396061569452286,
      0.07414595782756805,
      -0.025975527241826057,
      -0.12667205929756165,
      0.02027140185236931,
      -0.03262476995587349,
      -0.011206044815480709,
      0.01641283743083477,
      -0.026214344426989555,
      -0.05152071267366409,
      -0.004704139661043882,
      -0.1274998039007187,
      -0.08453891426324844,
      -0.014735767617821693,
      -0.017502490431070328,
      0.026410534977912903,
      -0.024976162239909172,
      -0.04452794790267944,
      -0.002926258370280266,
      -0.13473057746887207,
      -0.15899193286895752,
      -0.013596446253359318,
      -0.008481940254569054,
      0.05011077970266342,
      -0.008669812232255936,
      0.027711037546396255,
      0.00751221738755703,
      -0.05792462080717087,
      -0.08800853788852692,
      -0.004807260353118181,
      -0.03778085485100746,
      0.01644841954112053,
      -0.02630523033440113,
      0.05917094647884369,
      -0.04957607015967369,
      -0.09459932148456573,
      -0.11887767165899277,
      0.02460428513586521,
      -0.0046871863305568695,
      0.15136998891830444,
      0.035657890141010284,
      0.027428453788161278,
      -0.02143063209950924,
      -0.06266341358423233,
      -0.1746848076581955,
      0.01066550612449646,
      -0.028096040710806847,
      0.0848555788397789,
      0.014189312234520912,
      -0.03930962458252907,
      -0.015574836172163486,
      -0.06359902769327164,
      -0.06117689609527588,
      0.06396547704935074,
      0.05334093049168587,
      -0.020640436559915543,
      0.07852445542812347,
      -0.029323067516088486,
      0.02977610006928444,
      -0.19780489802360535,
      -0.07431810349225998,
      0.04324706271290779,
      0.0645737573504448,
      -0.008678282611072063,
      -0.008348296396434307,
      -0.019763994961977005,
      -0.054325204342603683,
      -0.19302166998386383,
      -0.04434703662991524,
      0.010596256703138351,
      0.014665214344859123,
      0.04970772564411163,
      0.003989106044173241,
      0.037028968334198,
      -0.035244882106781006,
      0.0366835743188858,
      -0.005033731460571289,
      -0.019962843507528305,
      0.0019401315366849303,
      -0.048889365047216415,
      -0.06930869817733765,
      -0.05096755176782608,
      -0.057857125997543335,
      -0.050894469022750854,
      0.0024715298786759377,
      0.04306144639849663,
      0.013941220007836819,
      -0.008805564604699612,
      0.01040671207010746,
      -0.03708763048052788,
      -0.07643792778253555,
      -0.1595613956451416,
      -0.022719787433743477,
      -0.011651682667434216,
      -0.037442922592163086,
      0.030454350635409355,
      -0.05056874081492424,
      0.007205607835203409,
      -0.09925609081983566,
      -0.0112569909542799,
      -0.02824452891945839,
      -0.05188481882214546,
      -0.06020553782582283,
      -0.0278606154024601,
      -0.03200109675526619,
      -0.029293444007635117,
      -0.09622927755117416,
      -0.019493941217660904,
      0.02377752773463726,
      -0.07737311720848083,
      -0.13394522666931152,
      -0.09027022123336792,
      -0.14352798461914062,
      -0.12574250996112823,
      -0.027492035180330276,
      -0.005611374042928219,
      0.012780806049704552,
      -0.028366969898343086,
      -0.11482489854097366,
      -0.08475910872220993,
      -0.14780129492282867,
      -0.10811447352170944,
      -0.04904177784919739,
      -0.009360253810882568,
      0.011561130173504353,
      0.011968906037509441,
      -0.047953277826309204,
      -0.008144976571202278,
      -0.024426687508821487,
      -0.0414288192987442,
      -0.010988817550241947,
      -0.03188728913664818,
      -0.00503945117816329,
      -0.0002845870330929756,
      0.01230380404740572,
      -0.0043205078691244125,
      -0.05230326950550079,
      -0.04550854116678238,
      -0.011293706484138966,
      -0.01758950762450695,
      -0.02640019729733467,
      -0.03660297393798828,
      0.015317544341087341,
      0.02135728858411312,
      -0.16205337643623352,
      -0.04115292429924011,
      -0.1329117715358734,
      0.011425839737057686,
      -0.01581917703151703,
      -0.020324744284152985,
      -0.11212245374917984,
      -0.02497781254351139,
      -0.029689127579331398,
      -0.004825597163289785,
      -0.06391335278749466,
      0.006885072682052851,
      -0.031341005116701126,
      -0.02185381017625332,
      -0.10609640926122665,
      -0.06688456237316132,
      -0.08857396990060806,
      -0.09174589812755585,
      -0.10559672117233276,
      -0.04474383592605591,
      0.007144077681005001,
      0.056551266461610794,
      -0.10104156285524368,
      -0.05486717075109482,
      -0.009295993484556675,
      -0.11363937705755234,
      -0.06788381189107895,
      -0.03848153352737427,
      -0.007467118091881275,
      0.040777258574962616,
      -0.02427269145846367,
      -0.06819869577884674,
      -0.05519872158765793,
      -0.22431081533432007,
      -0.056115347892045975,
      -0.06451047211885452,
      0.04084307327866554,
      -0.0766768530011177,
      -0.030844448134303093,
      -0.010761938989162445,
      0.02772851102054119,
      -0.1770160049200058,
      -0.027130383998155594,
      -0.046693719923496246,
      0.010362076573073864,
      -0.04989220201969147,
      -0.0223696269094944,
      -0.03600555285811424,
      6.813259096816182e-05,
      -0.10631401836872101,
      0.03363142907619476,
      -0.10320135951042175,
      0.03626405820250511,
      -0.03487785905599594,
      -0.030992887914180756,
      -0.07945849001407623,
      0.008543314412236214,
      -0.17606650292873383,
      -0.04485483467578888,
      -0.1481761485338211,
      -0.01632034219801426,
      -0.020105287432670593,
      0.044799067080020905,
      -0.079366534948349,
      0.028348149731755257,
      0.021764742210507393,
      -0.02448023110628128,
      -0.09426305443048477,
      -0.01713128387928009,
      -0.05090536177158356,
      -0.018736794590950012,
      -0.007100036833435297,
      -0.008606154471635818,
      -0.0029268492944538593,
      -0.028576649725437164,
      -0.07090596109628677,
      -0.06599759310483932,
      0.004891526885330677,
      0.01686384342610836,
      0.03406686335802078,
      -0.0015194863080978394,
      0.023506566882133484,
      -0.05604159086942673,
      -0.16035345196723938,
      -0.022941339761018753,
      0.061905961483716965,
      -0.001295003923587501,
      -0.011421781033277512,
      0.015828721225261688,
      -0.01332623977214098,
      -0.02045113779604435,
      -0.04287031292915344,
      -0.03405046835541725,
      0.019341792911291122,
      0.01375799160450697,
      0.0006872021476738155,
      -0.003912514541298151,
      0.03357823193073273,
      -0.029378512874245644,
      -0.04771369695663452,
      -0.11419691890478134,
      -0.0508936382830143,
      0.008000276982784271,
      0.07712582498788834,
      -0.0015028838533908129,
      -0.015624884516000748,
      -0.006667942274361849,
      -0.13887402415275574,
      -0.05391598120331764,
      -0.036001309752464294,
      0.03271852061152458,
      0.0902269184589386,
      -0.007938206195831299,
      -0.12123764306306839,
      0.004146534949541092,
      -0.23006725311279297,
      -0.25867322087287903,
      -0.11292985826730728,
      0.010400940664112568,
      0.07843316346406937,
      -0.03378022834658623,
      -0.07492342591285706,
      0.03310445696115494,
      -0.32489436864852905,
      -0.26272717118263245,
      -0.04299512505531311,
      -0.0028256613295525312,
      0.03659906983375549,
      0.03449370339512825,
      0.04640218988060951,
      -0.022158950567245483,
      -0.1533077210187912,
      -0.1853446215391159,
      -0.05576937645673752,
      -0.018583865836262703,
      -0.016540206968784332,
      0.031024456024169922,
      -0.10652071982622147,
      0.00897221826016903,
      -0.11322420835494995,
      -0.02420738711953163,
      -0.008273147977888584,
      -0.029588641598820686,
      0.04015744850039482,
      -0.01239043939858675,
      -0.09206034988164902,
      -0.02388564497232437,
      -0.16293254494667053,
      -0.10003071278333664,
      0.024394938722252846,
      0.0262654647231102,
      0.047201141715049744,
      -0.04092812538146973,
      0.04054050147533417,
      -0.0026920705568045378,
      -0.0854022428393364,
      -0.06470047682523727,
      -0.013402366079390049,
      0.039318256080150604,
      0.05459252744913101,
      -0.021877452731132507,
      0.0879564955830574,
      -0.07665857672691345,
      0.0025352230295538902,
      -0.0334162674844265,
      -0.06228704750537872,
      -0.10392477363348007,
      0.03084607794880867,
      -0.06633767485618591,
      -0.04566069319844246,
      -0.12419947236776352,
      -0.042084433138370514,
      -0.04578070342540741,
      -0.1278885006904602,
      -0.23422656953334808,
      -0.18365436792373657,
      -0.15499599277973175,
      -0.14374259114265442,
      -0.1726212352514267,
      -0.040174610912799835,
      0.019697608426213264,
      -0.09199482947587967,
      -0.2428043782711029,
      -0.24806831777095795,
      -0.22853270173072815,
      -0.3406892418861389,
      -0.13743279874324799,
      -0.055398326367139816,
      0.022247429937124252,
      -0.02362219989299774,
      -0.026705505326390266,
      -0.01429134700447321,
      0.009601189754903316,
      -0.021583184599876404,
      -0.04235479235649109,
      0.004077958408743143,
      -0.012006832286715508,
      -0.002295978134498,
      -0.001927554956637323,
      0.03287334740161896,
      -0.004505993332713842,
      -0.055119264870882034,
      -0.02330882102251053,
      -0.02583502046763897,
      -0.008219847455620766,
      0.0163352582603693,
      -0.0033898307010531425,
      0.016824811697006226,
      -0.20544245839118958,
      -0.03800618648529053,
      -0.16864413022994995,
      0.015425079502165318,
      0.0032114842906594276,
      0.023394033312797546,
      -0.1479683816432953,
      -0.061775125563144684,
      -0.14850054681301117,
      -0.021277783438563347,
      -0.09575160592794418,
      -0.012790936045348644,
      -0.00996056105941534,
      -0.009225806221365929,
      -0.16566455364227295,
      -0.10544564574956894,
      0.015080837532877922,
      -0.0916767418384552,
      -0.026430046185851097,
      -0.03930531069636345,
      0.017053920775651932,
      0.019849523901939392,
      -0.040349557995796204,
      -0.07520914077758789,
      -0.05344558507204056,
      -0.21519218385219574,
      -0.0070037138648331165,
      -0.024474455043673515,
      0.01622447930276394,
      -0.05537679046392441,
      -0.03521745279431343,
      -0.11742362380027771,
      0.019648699089884758,
      -0.13583190739154816,
      -0.04442737251520157,
      -0.04057596996426582,
      0.04455513507127762,
      -0.02199559658765793,
      0.024115940555930138,
      -0.08972694724798203,
      0.011556168086826801,
      -0.12943601608276367,
      0.003958122804760933,
      -0.06608153879642487,
      0.04234011471271515,
      -0.08099349588155746,
      -0.006534354295581579,
      -0.04325152933597565,
      -0.008152702823281288,
      -0.10910699516534805,
      -0.04308248683810234,
      -0.2173537015914917,
      0.0384092777967453,
      -0.05372060462832451,
      -0.0062936278991401196,
      -0.07223556935787201,
      0.029649779200553894,
      -0.1499425321817398,
      0.0022199072409421206,
      -0.27813658118247986,
      -0.006079127546399832,
      -0.08692248910665512,
      -0.019197851419448853,
      -0.06575824320316315,
      -0.038357991725206375,
      -0.01618237793445587,
      0.014812449924647808,
      -0.21933364868164062,
      0.009854820556938648,
      -0.06314623355865479,
      -0.017293516546487808,
      -0.05263950303196907,
      -0.007359635550528765,
      -0.09367192536592484,
      0.010904133319854736,
      -0.17942452430725098,
      0.0019047749228775501,
      -0.1172536239027977,
      0.015240263193845749,
      -0.06905920058488846,
      0.030762961134314537,
      -0.02207265794277191,
      0.034746263176202774,
      -0.14301081001758575,
      -0.030354930087924004,
      -0.09360776841640472,
      -0.010097099468111992,
      -0.0250186026096344,
      0.03230483457446098,
      -0.07007638365030289,
      0.017632124945521355,
      -0.1536840945482254,
      -0.11692620813846588,
      -0.07259610295295715,
      0.007225927896797657,
      0.012520518153905869,
      -0.017916690558195114,
      0.0345420315861702,
      0.010840383358299732,
      -0.17617283761501312,
      -0.17534658312797546,
      -0.0758131593465805,
      0.0493890680372715,
      -0.029772387817502022,
      0.05239830166101456,
      0.02818080224096775,
      -0.007429788820445538,
      -0.22817878425121307,
      -0.19475609064102173,
      -0.12330503016710281,
      0.04759247601032257,
      0.061311349272727966,
      -0.006695267278701067,
      -0.04240797460079193,
      -0.007642912678420544,
      -0.3533383011817932,
      -0.3083331882953644,
      -0.12609325349330902,
      0.02234603464603424,
      0.14501139521598816,
      0.05475891754031181,
      -0.052294958382844925,
      -0.0242575965821743,
      -0.3233110010623932,
      -0.3897475600242615,
      -0.10165181756019592,
      0.0515761524438858,
      0.07841476798057556,
      -0.00042068021139129996,
      0.10793367773294449,
      0.0016552269225940108,
      -0.23414458334445953,
      -0.26925861835479736,
      -0.07944437116384506,
      0.025692958384752274,
      0.1516457349061966,
      -0.0482557974755764,
      -0.014499291777610779,
      -0.02701513096690178,
      -0.2070462703704834,
      -0.1614035815000534,
      -0.01901675947010517,
      -0.014062049798667431,
      0.03896116092801094,
      0.07548834383487701,
      -0.033205218613147736,
      0.04087064042687416,
      -0.26360705494880676,
      -0.27825456857681274,
      -0.008529203943908215,
      0.02099280245602131,
      0.017304783686995506,
      0.04374467581510544,
      -0.060457222163677216,
      0.04326269403100014,
      -0.08603611588478088,
      -0.06531750410795212,
      0.06345316767692566,
      0.04415494576096535,
      0.010354606434702873,
      0.03595646470785141,
      0.012581143528223038,
      -0.03415331244468689,
      -0.059907980263233185,
      -0.016567453742027283,
      0.03155621513724327,
      0.005891668610274792,
      0.03133326768875122,
      -0.11661437153816223,
      -0.024574674665927887,
      -0.14637349545955658,
      -0.13332143425941467,
      -0.05266929045319557,
      0.029034482315182686,
      -0.052227918058633804,
      0.08781565725803375,
      -0.07944030314683914,
      0.019999561831355095,
      -0.2826633155345917,
      -0.16129185259342194,
      -0.054758220911026,
      -0.012918872758746147,
      -0.14739400148391724,
      -0.06275826692581177,
      -0.06577610969543457,
      -0.08580940216779709,
      -0.2370363026857376,
      -0.08326777815818787,
      0.0006127453525550663,
      -0.0043097869493067265,
      -0.011934681795537472,
      0.033806901425123215,
      0.0231319610029459,
      -0.0348096527159214,
      -0.010503527708351612,
      0.009254205040633678,
      0.0026578509714454412,
      -0.008181581273674965,
      0.0031488719396293163,
      -0.019897906109690666,
      -0.08140014857053757,
      -0.035798344761133194,
      -0.021252216771245003,
      -0.030956340953707695,
      -0.019064772874116898,
      -0.009139429777860641,
      -0.05685582384467125,
      -0.06582603603601456,
      -0.1763956993818283,
      -0.05230744555592537,
      -0.19948646426200867,
      -0.025355365127325058,
      0.02792174182832241,
      -0.0509684681892395,
      -0.12379526346921921,
      -0.03661373630166054,
      -0.11076414585113525,
      -0.011510134674608707,
      -0.1445382684469223,
      -0.017233679071068764,
      0.043160296976566315,
      -0.03432225435972214,
      -0.13213585317134857,
      -0.12361103296279907,
      -0.0003077806031797081,
      -0.0579068586230278,
      -0.0019917325116693974,
      -0.017199087888002396,
      -0.01853751763701439,
      -0.02065107598900795,
      -0.03741683065891266,
      -0.11620086431503296,
      0.008863171562552452,
      -0.17371626198291779,
      -0.029805753380060196,
      0.0028589575085788965,
      0.022726140916347504,
      -0.008016863837838173,
      0.03587080165743828,
      -0.07325354963541031,
      0.062204182147979736,
      -0.1030643954873085,
      -0.0033001580741256475,
      -0.13697673380374908,
      -0.019949181005358696,
      0.006381053943186998,
      -0.008631485514342785,
      -0.11150217801332474,
      -0.056372784078121185,
      -0.1405620574951172,
      0.02706213854253292,
      -0.11625438928604126,
      0.03382691740989685,
      -0.03771629184484482,
      0.029949789866805077,
      -0.09108100831508636,
      -0.024537542834877968,
      -0.07971485704183578,
      -0.0358392596244812,
      -0.10443685948848724,
      0.024825574830174446,
      -0.063941091299057,
      -0.012358810752630234,
      -0.0603301115334034,
      0.00799284316599369,
      -0.07885006070137024,
      0.0058928243815898895,
      -0.14233967661857605,
      -0.10170309990644455,
      -0.13435117900371552,
      -0.02719385363161564,
      -0.043597638607025146,
      0.02368704229593277,
      -0.06539148837327957,
      -0.01359609980136156,
      -0.1836395561695099,
      -0.06714296340942383,
      -0.116048164665699,
      0.009050939232110977,
      0.007703324314206839,
      0.0053752572275698185,
      -0.06549474596977234,
      -0.029571032151579857,
      -0.18742325901985168,
      -0.026941318064928055,
      -0.07581865042448044,
      0.02032444439828396,
      -0.05555741488933563,
      0.017253223806619644,
      -0.012264630757272243,
      0.05727891996502876,
      -0.10045531392097473,
      -0.19415801763534546,
      -0.041817355901002884,
      -0.00775772612541914,
      -0.012294968590140343,
      -0.011768462136387825,
      -0.03172304853796959,
      0.021136783063411713,
      -0.14283934235572815,
      -0.0962502658367157,
      -3.93520385841839e-05,
      0.035760026425123215,
      0.03546589985489845,
      0.035596881061792374,
      0.016850238665938377,
      -0.02240697480738163,
      -0.11021137237548828,
      -0.14409993588924408,
      0.00883625727146864,
      0.049515578895807266,
      0.02365439385175705,
      -0.01535117905586958,
      0.06122007593512535,
      0.032856643199920654,
      -0.2608470320701599,
      -0.34578457474708557,
      -0.07614129781723022,
      0.039116423577070236,
      0.05567564070224762,
      0.052790675312280655,
      0.057934317737817764,
      0.05805679038167,
      -0.2005351185798645,
      -0.3291090726852417,
      -0.027652572840452194,
      0.04671304672956467,
      0.09185037016868591,
      -0.0014598090201616287,
      0.003295780625194311,
      0.024036535993218422,
      -0.23248553276062012,
      -0.32855361700057983,
      -0.01766512356698513,
      0.04455209895968437,
      0.1416606307029724,
      -0.027269355952739716,
      -0.004508522339165211,
      -0.013242727145552635,
      -0.17887888848781586,
      -0.3447912037372589,
      -0.04732309654355049,
      -0.002447713864967227,
      0.13692601025104523,
      0.0053133172914385796,
      0.0029163644649088383,
      -0.055139947682619095,
      -0.2729969918727875,
      -0.3949138820171356,
      -0.09355122596025467,
      -0.0013251156779006124,
      0.13296416401863098,
      0.013612084090709686,
      0.0666395053267479,
      -0.01170520018786192,
      -0.26233550906181335,
      -0.33429720997810364,
      -0.11559907346963882,
      -0.005543698091059923,
      -0.008802792988717556,
      0.037911973893642426,
      0.01650412753224373,
      0.0443454384803772,
      -0.15401366353034973,
      -0.1884920448064804,
      -0.07562460005283356,
      0.024448908865451813,
      0.016687961295247078,
      0.020593324676156044,
      0.03218080475926399,
      0.013881603255867958,
      -0.05423825606703758,
      -0.06777122616767883,
      -0.04182085767388344,
      -0.00043778744293376803,
      0.01305873692035675,
      -0.008155012503266335,
      -0.06879781931638718,
      -0.04874572902917862,
      -0.013860374689102173,
      -0.08174311369657516,
      -0.024703601375222206,
      -0.020631661638617516,
      -0.04077763110399246,
      -0.006887700874358416,
      -0.07051004469394684,
      -0.11467476189136505,
      -0.001759147853590548,
      -0.015357873402535915,
      -0.004611787851899862,
      -0.0974898710846901,
      -0.09166843444108963,
      -0.19857722520828247,
      -0.18336062133312225,
      -0.22076256573200226,
      -0.05427192896604538,
      0.021717416122555733,
      -0.021679459139704704,
      -0.0053103044629096985,
      -0.0012433970114216208,
      0.04238610342144966,
      -0.053231190890073776,
      0.035705674439668655,
      -0.007068909239023924,
      0.01928413286805153,
      -0.016632331535220146,
      0.0022348815109580755,
      0.0002876431099139154,
      -0.03493739664554596,
      -0.05213720351457596,
      -0.04912423714995384,
      -0.022908566519618034,
      -0.027865909039974213,
      -0.011441449634730816,
      -0.04551779478788376,
      -0.046206723898649216,
      -0.1486569494009018,
      0.058546945452690125,
      -0.15809030830860138,
      -0.016891974955797195,
      0.04400316998362541,
      0.024208445101976395,
      -0.13987384736537933,
      0.059343814849853516,
      -0.12694726884365082,
      -0.08624693751335144,
      -0.13517162203788757,
      0.007337926886975765,
      -0.013131671585142612,
      0.06577648222446442,
      -0.1614203155040741,
      -0.05751502886414528,
      0.018669525161385536,
      -0.09602681547403336,
      -0.061664123088121414,
      -0.0026918407529592514,
      -0.010709922760725021,
      0.037037890404462814,
      -0.034669868648052216,
      -0.10926792770624161,
      0.009043091908097267,
      -0.1111607551574707,
      0.03738816827535629,
      -0.008851755410432816,
      -0.03098886087536812,
      0.013498419895768166,
      0.018663516268134117,
      -0.036027200520038605,
      -0.01965353637933731,
      -0.013560228049755096,
      0.003059294307604432,
      -0.021474990993738174,
      -0.01335281040519476,
      -0.0453425794839859,
      -0.004698754753917456,
      -0.049972519278526306,
      0.006713272072374821,
      -0.08890950679779053,
      -0.04003170505166054,
      -0.06720282137393951,
      0.08513770252466202,
      -0.09072245657444,
      0.019525719806551933,
      -0.06532140076160431,
      0.005684428382664919,
      -0.09615451842546463,
      -0.013026316650211811,
      -0.0719093605875969,
      -0.05170012637972832,
      -0.14531701803207397,
      0.019441282376646996,
      0.018630610778927803,
      -0.03187527507543564,
      -0.011732485145330429,
      -0.0388074591755867,
      -0.06905316561460495,
      -0.06704423576593399,
      -0.06357048451900482,
      0.013586428947746754,
      -0.013832330703735352,
      -0.0287274532020092,
      -0.042488228529691696,
      -0.008220436051487923,
      -0.0662684515118599,
      -0.0151737155392766,
      -0.027884535491466522,
      0.006484390236437321,
      -0.04185827448964119,
      0.03335060551762581,
      -0.016418594866991043,
      0.016006039455533028,
      -0.030639424920082092,
      -0.11285233497619629,
      -0.05138332396745682,
      -0.007780079729855061,
      0.010565828531980515,
      -0.07025031745433807,
      -0.049839142709970474,
      -0.03647351264953613,
      -0.08597178012132645,
      -0.09836268424987793,
      -0.024447277188301086,
      -0.010730946436524391,
      0.08526739478111267,
      0.00667249271646142,
      -0.000613416254054755,
      0.009017158299684525,
      -0.010220618918538094,
      -0.12784601747989655,
      -0.058860305696725845,
      0.015266363508999348,
      0.05715368688106537,
      0.04209313541650772,
      -0.046080026775598526,
      0.036857228726148605,
      -0.061477258801460266,
      -0.07418229430913925,
      -0.10437063872814178,
      0.059651900082826614,
      0.16341178119182587,
      0.005712706595659256,
      -0.019029367715120316,
      0.04348018020391464,
      -0.17905934154987335,
      -0.3088963031768799,
      -0.1432030200958252,
      -0.0129220150411129,
      0.20168523490428925,
      0.04407494142651558,
      0.0700622946023941,
      0.06854233890771866,
      -0.10323275625705719,
      -0.3089233636856079,
      -0.11798247694969177,
      -0.005605250597000122,
      0.06547390669584274,
      0.01914861612021923,
      0.010378027334809303,
      0.037827905267477036,
      -0.19014929234981537,
      -0.31258291006088257,
      -0.13469910621643066,
      0.014073127880692482,
      0.04080364480614662,
      -0.02395769953727722,
      0.04770755395293236,
      0.010628224350512028,
      -0.23887991905212402,
      -0.3028225600719452,
      -0.18553029000759125,
      0.06537747383117676,
      0.091307632625103,
      0.008135945536196232,
      0.00669479975476861,
      -0.021457795053720474,
      -0.22977621853351593,
      -0.370289146900177,
      -0.18202249705791473,
      0.0027298296336084604,
      0.11118277162313461,
      0.012537896633148193,
      0.012732409872114658,
      -0.00026925557176582515,
      -0.169496089220047,
      -0.3210422098636627,
      -0.181904137134552,
      0.011607106775045395,
      0.11106011271476746,
      -0.015372073277831078,
      -0.0070781586691737175,
      0.043525807559490204,
      -0.15168717503547668,
      -0.2505396008491516,
      -0.15303479135036469,
      0.018686367198824883,
      0.049210891127586365,
      -0.0552527979016304,
      -0.04735954850912094,
      -0.01938253454864025,
      -0.0683642253279686,
      -0.15294070541858673,
      -0.12306804209947586,
      -0.006496750749647617,
      0.06446754187345505,
      -0.018070487305521965,
      0.050015296787023544,
      -0.059865713119506836,
      -0.03727268800139427,
      -0.024971576407551765,
      -0.06851083040237427,
      -0.0658789873123169,
      -0.0430193766951561,
      -0.040492188185453415,
      -0.01855221949517727,
      -0.07183795422315598,
      -0.007985906675457954,
      0.03223676234483719,
      0.02292964793741703,
      -0.16707973182201385,
      -0.12780968844890594,
      -0.1398100107908249,
      -0.13208767771720886,
      -0.24830755591392517,
      -0.045476317405700684,
      0.016981661319732666,
      0.026503993198275566,
      -0.037874214351177216,
      0.013020304962992668,
      0.05313735082745552,
      -0.02835986576974392,
      0.09204840660095215,
      -0.009821062907576561,
      -0.0019104834645986557,
      0.017204131931066513,
      0.06490032374858856,
      -0.02184392511844635,
      0.013718468137085438,
      0.001993294805288315,
      0.07577899843454361,
      -0.01251820009201765,
      0.009484208188951015,
      0.016812995076179504,
      0.07199615985155106,
      -0.10467471927404404,
      -0.11471028625965118,
      0.06322469562292099,
      -0.055647335946559906,
      -0.01580406352877617,
      0.01122660469263792,
      0.07209450751543045,
      -0.06845369935035706,
      -0.098404161632061,
      -0.042827289551496506,
      0.005348079837858677,
      -0.08251774311065674,
      -0.01872522197663784,
      -0.01216097828000784,
      0.0019717945251613855,
      -0.0686195120215416,
      -0.023083407431840897,
      0.007820185273885727,
      -0.07508732378482819,
      -0.027019215747714043,
      -0.06593409925699234,
      0.004537784028798342,
      0.018398214131593704,
      -0.04099046066403389,
      -0.048208024352788925,
      0.06484398245811462,
      -0.07353858649730682,
      0.007735454011708498,
      -0.05757717788219452,
      -0.028394123539328575,
      0.023601103574037552,
      0.008560163900256157,
      -0.019807590171694756,
      0.04098671302199364,
      -0.024801157414913177,
      0.021350080147385597,
      0.028698552399873734,
      0.007938986644148827,
      -0.03201844543218613,
      0.02507636323571205,
      -0.08208947628736496,
      0.03589637205004692,
      -0.07907729595899582,
      0.005376890301704407,
      0.007200939115136862,
      0.0008483728743158281,
      -0.053732115775346756,
      0.001571983564645052,
      -0.0725037232041359,
      -0.01245127897709608,
      -0.06402038782835007,
      -0.046266842633485794,
      -0.04684300348162651,
      0.0157195795327425,
      0.042126111686229706,
      0.02519436553120613,
      -0.07944052666425705,
      0.04815596714615822,
      0.022132467478513718,
      -0.014912738464772701,
      0.13155576586723328,
      -0.0453881211578846,
      -0.03391069918870926,
      0.03347761929035187,
      -0.018921732902526855,
      -0.0016300755087286234,
      -0.028696337714791298,
      0.0008793797460384667,
      0.011331338435411453,
      0.044511210173368454,
      -0.12667450308799744,
      0.002854723948985338,
      -0.0036907230969518423,
      -0.012515783309936523,
      -0.01753520406782627,
      -0.04592757672071457,
      -0.11728771030902863,
      0.07678671926259995,
      -0.10204867273569107,
      0.0032805216033011675,
      0.08183220773935318,
      0.043891314417123795,
      0.033908650279045105,
      -0.03634310141205788,
      -0.018459701910614967,
      0.03028004989027977,
      -0.19997604191303253,
      0.013506367802619934,
      0.0687415674328804,
      0.059014610946178436,
      0.036982376128435135,
      6.334575300570577e-05,
      -0.1351580023765564,
      0.021838828921318054,
      -0.2972942292690277,
      0.013239073567092419,
      0.07951148599386215,
      0.042263880372047424,
      0.014370787888765335,
      -0.013113312423229218,
      -0.19568876922130585,
      -0.023439140990376472,
      -0.24941398203372955,
      0.020151065662503242,
      0.08842188119888306,
      0.0649314597249031,
      0.13007108867168427,
      0.020933987572789192,
      -0.18188150227069855,
      -0.12605801224708557,
      -0.1814727634191513,
      0.030546249821782112,
      0.1357678920030594,
      -0.008286108262836933,
      0.19866307079792023,
      0.013800869695842266,
      -0.15653111040592194,
      -0.08352454751729965,
      -0.2650960683822632,
      0.008026814088225365,
      0.10107947140932083,
      -0.005972655490040779,
      0.09129271656274796,
      0.0492854118347168,
      -0.23384994268417358,
      -0.13705995678901672,
      -0.2833229601383209,
      0.012456150725483894,
      0.016830742359161377,
      0.03185894712805748,
      0.09372915327548981,
      0.03294779732823372,
      -0.1194518432021141,
      -0.18157349526882172,
      -0.2928597033023834,
      0.057580191642045975,
      0.11464393138885498,
      -0.016174154356122017,
      0.02011977881193161,
      0.025387978181242943,
      -0.15567027032375336,
      -0.28466176986694336,
      -0.23415499925613403,
      0.04463403299450874,
      0.09458049386739731,
      -0.045565638691186905,
      0.06516675651073456,
      -0.03283459320664406,
      -0.04732784628868103,
      -0.18795537948608398,
      -0.1117841973900795,
      -0.017579717561602592,
      0.043961480259895325,
      -0.042735449969768524,
      -0.024845683947205544,
      -0.014140737242996693,
      -0.1698545664548874,
      -0.1016102284193039,
      -0.09529098123311996,
      0.036561038345098495,
      0.047273389995098114,
      -0.028856229037046432,
      0.0387655645608902,
      -0.007373952306807041,
      -0.09412618726491928,
      -0.11602245271205902,
      -0.1074497327208519,
      0.012192243710160255,
      0.07432421296834946,
      0.05109969899058342,
      0.019233953207731247,
      -0.057841707020998,
      -0.026183757930994034,
      -0.029125414788722992,
      -0.13369382917881012,
      -0.02842424437403679,
      0.004460277501493692,
      -0.043414052575826645,
      -0.06498105078935623,
      -0.10347266495227814,
      -0.024563413113355637,
      -0.049842242151498795,
      -0.061253953725099564,
      -0.15826857089996338,
      -0.14597752690315247,
      -0.17431166768074036,
      -0.18335524201393127,
      -0.16977231204509735,
      -0.08477412909269333,
      0.006870840676128864,
      0.02674974501132965,
      -0.006823599338531494,
      0.015047324821352959,
      -0.02153414860367775,
      -0.052801989018917084,
      0.05064669996500015,
      -0.019529834389686584,
      -0.04008094593882561,
      0.018149323761463165,
      0.07663599401712418,
      -0.040669407695531845,
      0.062098171561956406,
      -0.07838234305381775,
      0.06313179433345795,
      0.01954306662082672,
      0.012041664682328701,
      -0.018345549702644348,
      0.04156504198908806,
      -0.11584684997797012,
      -0.131722554564476,
      -0.05783403292298317,
      -0.09356223791837692,
      0.06051997095346451,
      0.0499141663312912,
      -0.0365610308945179,
      -0.0022449365351349115,
      -0.12239941954612732,
      -0.06562334299087524,
      0.01624017208814621,
      -0.09799139946699142,
      -0.006159499287605286,
      0.010845123790204525,
      -0.04404406249523163,
      -0.06312859803438187,
      -0.08214954286813736,
      0.013749925419688225,
      -0.011363046243786812,
      -0.01801132597029209,
      0.05358804762363434,
      -0.04809901490807533,
      -0.06739982217550278,
      0.021227950230240822,
      -0.04154398292303085,
      -0.0033957359846681356,
      -0.12806467711925507,
      0.01381846982985735,
      0.0663997083902359,
      -0.022837506607174873,
      -0.04384132847189903,
      0.022845733910799026,
      -0.0460394024848938,
      0.018284877762198448,
      -0.06021984666585922,
      0.021784162148833275,
      0.03353708237409592,
      0.10185838490724564,
      -0.06857861578464508,
      0.028184326365590096,
      0.037259314209222794,
      -0.06887134164571762,
      -0.021497532725334167,
      -0.06644350290298462,
      -0.008615802973508835,
      0.07938896119594574,
      -0.05206518992781639,
      -0.04885008558630943,
      -0.03607356175780296,
      -0.011261398904025555,
      -0.008898907341063023,
      -0.05127783492207527,
      0.046120185405015945,
      -0.008115445263683796,
      -0.08536840975284576,
      -0.011803577654063702,
      -0.11191488057374954,
      -0.01048706192523241,
      0.008440149948000908,
      0.02258201502263546,
      0.11808734387159348,
      0.14459015429019928,
      -0.11574792116880417,
      0.017783913761377335,
      -0.06581786274909973,
      -0.06344141811132431,
      0.038120023906230927,
      -0.024482659995555878,
      -0.012571422383189201,
      0.17395177483558655,
      -0.11012212932109833,
      -0.03141491487622261,
      0.0002494234358891845,
      -0.036678798496723175,
      -0.06552533805370331,
      -0.025107283145189285,
      -0.07714077830314636,
      -0.03429723531007767,
      -0.23830141127109528,
      -0.00592526700347662,
      -0.0367288738489151,
      -0.0015108020743355155,
      0.05309682711958885,
      0.036381158977746964,
      -0.16067390143871307,
      0.11287369579076767,
      -0.25582098960876465,
      -0.03177916631102562,
      0.036609794944524765,
      0.006802823860198259,
      0.040048763155937195,
      0.005002021789550781,
      -0.0601070299744606,
      0.09597653895616531,
      -0.20207488536834717,
      -0.03097820095717907,
      -0.011177035048604012,
      -0.00935285072773695,
      0.0038231294602155685,
      -0.003113435348495841,
      -0.11900793761014938,
      0.050508201122283936,
      -0.12561725080013275,
      -0.039528731256723404,
      -0.13674719631671906,
      0.04024511203169823,
      0.06708647310733795,
      0.034084632992744446,
      -0.1375390589237213,
      0.052268557250499725,
      -0.2391723245382309,
      -0.004649822600185871,
      -0.03595523536205292,
      0.019196482375264168,
      0.1206299215555191,
      0.03256526216864586,
      -0.15622566640377045,
      -0.035064637660980225,
      -0.2465166449546814,
      0.0370490588247776,
      0.1096695065498352,
      0.07345175743103027,
      0.050926439464092255,
      0.03180992975831032,
      -0.16117778420448303,
      -0.1174391657114029,
      -0.33614733815193176,
      0.02065356820821762,
      0.027622276917099953,
      -0.004529866855591536,
      0.12744277715682983,
      0.03402893990278244,
      -0.10715516656637192,
      -0.2095489501953125,
      -0.32097309827804565,
      0.03590823709964752,
      -0.010255953297019005,
      -0.007740996312350035,
      0.13953080773353577,
      0.019469965249300003,
      -0.18582670390605927,
      -0.19004935026168823,
      -0.23174118995666504,
      0.034581273794174194,
      0.0367036797106266,
      -0.0395163968205452,
      0.08218435943126678,
      0.009497791528701782,
      -0.12823215126991272,
      -0.18708358705043793,
      -0.13995970785617828,
      0.07679115980863571,
      0.14098531007766724,
      0.0548684298992157,
      0.01664838381111622,
      -0.009928049519658089,
      -0.17097042500972748,
      -0.22294282913208008,
      -0.06729375571012497,
      0.05729062855243683,
      0.045138128101825714,
      0.03342929854989052,
      0.04274793341755867,
      0.011202886700630188,
      -0.048374831676483154,
      -0.1973797082901001,
      -0.04171794652938843,
      0.07218203693628311,
      0.06692579388618469,
      -0.013670029118657112,
      0.08710863441228867,
      -0.01695062592625618,
      -0.018502825871109962,
      -0.021243026480078697,
      -0.09557188302278519,
      -0.0003393772931303829,
      0.06755425035953522,
      0.017614509910345078,
      -0.042624812573194504,
      -0.0973510593175888,
      -0.0039442237466573715,
      -0.03980519250035286,
      -0.13511134684085846,
      -0.19150254130363464,
      -0.14049246907234192,
      -0.1914215087890625,
      -0.23034101724624634,
      -0.1098652333021164,
      -0.05003779008984566,
      0.016302673146128654,
      -0.006169670261442661,
      -0.02484513260424137,
      0.06754603981971741,
      0.05379835516214371,
      -0.015910882502794266,
      0.01704748347401619,
      -0.010312596336007118,
      0.02384204976260662,
      0.019745847210288048,
      0.02141270413994789,
      0.04565472900867462,
      -0.004869463853538036,
      -0.0017186964396387339,
      0.06900359690189362,
      -0.008561241440474987,
      -0.02640056237578392,
      -0.013196597807109356,
      0.011090467683970928,
      0.011032049544155598,
      -0.03778818994760513,
      -0.021682672202587128,
      -0.09034908562898636,
      0.04175198823213577,
      0.011320422403514385,
      -0.07305001467466354,
      -0.05124964565038681,
      0.001519629848189652,
      -0.05876763164997101,
      -0.03651045635342598,
      -0.1315625160932541,
      0.03556883707642555,
      -0.04062902554869652,
      -0.04675503820180893,
      -0.09532450884580612,
      -0.10622343420982361,
      -0.004843464121222496,
      -0.022024745121598244,
      0.0005894523346796632,
      0.04381105676293373,
      -0.028335800394415855,
      -0.10203709453344345,
      0.03671880066394806,
      -0.10509363561868668,
      7.13240951881744e-05,
      0.015112956054508686,
      0.005661869887262583,
      0.053335145115852356,
      0.002353210235014558,
      -0.16124852001667023,
      0.018377697095274925,
      -0.007797757629305124,
      0.015150231309235096,
      0.025534942746162415,
      -0.012094460427761078,
      0.022075505927205086,
      0.14184848964214325,
      -0.1269649863243103,
      0.04027535766363144,
      0.04354278743267059,
      0.002303820801898837,
      0.032611679285764694,
      -0.03554544597864151,
      0.13093028962612152,
      -0.04110107570886612,
      -0.05951012670993805,
      -0.02592521533370018,
      -0.02680540829896927,
      -0.022382305935025215,
      0.09293463081121445,
      -0.03861245885491371,
      0.13110347092151642,
      0.036963578313589096,
      -0.07302725315093994,
      -0.0006603036890737712,
      -0.0836077332496643,
      -0.00708299083635211,
      -0.07385754585266113,
      0.012431232258677483,
      -0.011604826897382736,
      0.10210027545690536,
      -0.033674146980047226,
      0.0023098380770534277,
      0.030870255082845688,
      0.03900708258152008,
      0.0474805012345314,
      0.005591405089944601,
      0.005849552806466818,
      0.0698123425245285,
      -0.18745747208595276,
      0.03616148978471756,
      0.03894704952836037,
      -0.024410294368863106,
      -0.012893031351268291,
      -0.02603248506784439,
      -0.0794447511434555,
      0.015919208526611328,
      -0.2853662669658661,
      0.02516329661011696,
      0.10263802856206894,
      -0.01176962349563837,
      0.023082736879587173,
      -0.05429387837648392,
      -0.056589845567941666,
      -0.00895402766764164,
      -0.36018791794776917,
      -0.09896176308393478,
      0.06928352266550064,
      -0.03380256146192551,
      0.08376626670360565,
      -0.0344005711376667,
      -0.041049737483263016,
      0.0824754387140274,
      -0.36479270458221436,
      -0.07948333024978638,
      0.062136925756931305,
      -0.0875147357583046,
      0.08716794103384018,
      -0.05075112357735634,
      0.018957149237394333,
      0.04715600609779358,
      -0.3540092408657074,
      -0.055357594043016434,
      -0.11100589483976364,
      -0.029017820954322815,
      0.0726851373910904,
      -0.043157514184713364,
      -0.004288823809474707,
      0.06176266074180603,
      -0.31261149048805237,
      0.0019374575931578875,
      -0.12321862578392029,
      0.017342614009976387,
      0.10333377867937088,
      0.024279585108160973,
      -0.11558908224105835,
      0.04030442237854004,
      -0.2806224822998047,
      0.05559644103050232,
      -0.004005999304354191,
      0.024295294657349586,
      0.15144452452659607,
      0.03541265428066254,
      -0.043768152594566345,
      0.06578872352838516,
      -0.2831277549266815,
      0.04687206819653511,
      0.022811615839600563,
      0.03394724428653717,
      0.09172364324331284,
      0.04077542945742607,
      -0.09133564680814743,
      -0.06161724776029587,
      -0.17594082653522491,
      0.07169462740421295,
      0.04095587506890297,
      0.017299557104706764,
      0.08364091068506241,
      0.07925032824277878,
      -0.14307759702205658,
      -0.23809504508972168,
      -0.14032353460788727,
      0.05132723227143288,
      0.07583870738744736,
      0.022804122418165207,
      0.04762333258986473,
      0.010877890512347221,
      -0.07804162055253983,
      -0.1941104680299759,
      -0.12458249926567078,
      0.08922480791807175,
      0.13243232667446136,
      0.07564807683229446,
      0.06760340183973312,
      0.058641836047172546,
      -0.02424750290811062,
      -0.123763307929039,
      -0.14228203892707825,
      0.04090181738138199,
      0.06758809089660645,
      0.020892271772027016,
      0.10693459957838058,
      0.0436677448451519,
      0.01390239130705595,
      -0.0672278106212616,
      -0.08021583408117294,
      0.06071799248456955,
      0.10495304316282272,
      0.02901892550289631,
      0.07392507046461105,
      0.016414213925600052,
      0.0024243523366749287,
      -0.0606858991086483,
      0.004159746691584587,
      -0.010940969921648502,
      0.07071530073881149,
      0.01967184990644455,
      0.02913345955312252,
      -0.12689566612243652,
      0.0055672284215688705,
      -0.03910015895962715,
      -0.07489161938428879,
      -0.15463967621326447,
      -0.17156754434108734,
      -0.09590736776590347,
      -0.17018739879131317,
      -0.1290043294429779,
      -0.11520024389028549,
      -0.01693715713918209,
      0.03272422403097153,
      -0.030062485486268997,
      -0.016487017273902893,
      -0.03255999833345413,
      -0.03355490043759346,
      0.012783948332071304,
      0.003780148923397064,
      -0.020934203639626503,
      -0.029151348397135735,
      -0.03855156898498535,
      -0.003233484923839569,
      -0.014140676707029343,
      -0.027212277054786682,
      -0.04372044652700424,
      0.03247151896357536,
      0.02146332897245884,
      0.03718061372637749,
      0.03904983401298523,
      -0.23916271328926086,
      0.011310040950775146,
      -0.03314528614282608,
      -0.040461357682943344,
      0.004902445711195469,
      0.020184019580483437,
      0.034487877041101456,
      -0.09025322645902634,
      -0.012159314937889576,
      -0.11264511197805405,
      0.030756663531064987,
      -0.12388380616903305,
      -0.05038467049598694,
      -0.039295945316553116,
      -0.01315541472285986,
      -0.06071165204048157,
      -0.08074426651000977,
      0.0341520830988884,
      -0.08506736904382706,
      -0.012559316121041775,
      0.08267311006784439,
      0.005105273798108101,
      -0.0014935069484636188,
      0.016099264845252037,
      -0.02439817599952221,
      0.04134389013051987,
      -0.05202344432473183,
      0.00505567854270339,
      0.04098834469914436,
      -0.07083722203969955,
      0.08126326650381088,
      0.06339959055185318,
      0.03421153500676155,
      0.006700514815747738,
      0.08701158314943314,
      0.028514966368675232,
      0.2087484896183014,
      0.11264726519584656,
      0.04680609703063965,
      0.02019166573882103,
      -0.04847897216677666,
      -0.020502405241131783,
      0.06481772661209106,
      -0.05621745064854622,
      0.08085643500089645,
      0.1300230175256729,
      0.045467864722013474,
      -0.04495309293270111,
      -0.024599509313702583,
      -0.05958154425024986,
      0.09874673187732697,
      -0.05054387450218201,
      0.16570565104484558,
      0.03847699612379074,
      0.027803530916571617,
      -0.009467395953834057,
      0.013811596669256687,
      0.004688852466642857,
      -0.029795773327350616,
      -0.02910403534770012,
      0.01617167517542839,
      0.07811857014894485,
      -0.12020306289196014,
      0.03338552266359329,
      0.022492045536637306,
      0.05292534828186035,
      0.08784997463226318,
      -0.005588548723608255,
      0.021078212186694145,
      0.07652901858091354,
      -0.35101965069770813,
      0.029201898723840714,
      0.10322161763906479,
      -0.015003087930381298,
      0.018881475552916527,
      -0.026967862620949745,
      -0.05787757411599159,
      0.1254686564207077,
      -0.33336737751960754,
      -0.015509290620684624,
      0.06772445887327194,
      -0.08107833564281464,
      0.045807767659425735,
      -0.03997037559747696,
      0.03592585772275925,
      0.10049545764923096,
      -0.22522450983524323,
      -0.12246227264404297,
      -0.009877661243081093,
      -0.16389280557632446,
      0.0860225111246109,
      -0.08113217353820801,
      -0.007892715744674206,
      0.0780981183052063,
      -0.2883579432964325,
      -0.13726748526096344,
      -0.039342522621154785,
      -0.14216338098049164,
      0.053338173776865005,
      -0.16065262258052826,
      -0.05307544022798538,
      0.08773131668567657,
      -0.32994288206100464,
      -0.10932642221450806,
      -0.11847890168428421,
      -0.0794694572687149,
      0.05706176906824112,
      -0.08518081903457642,
      -0.1187347024679184,
      0.1260290890932083,
      -0.36762261390686035,
      -0.015128526836633682,
      -0.12891815602779388,
      0.004623159766197205,
      0.06335393339395523,
      -0.0077185966074466705,
      -0.10830982029438019,
      0.10618750751018524,
      -0.22392335534095764,
      -0.007035392336547375,
      -0.09250349551439285,
      0.002596286591142416,
      0.09771955758333206,
      0.011450222693383694,
      0.0316365584731102,
      0.09875498712062836,
      -0.30788713693618774,
      0.04745228588581085,
      0.038125813007354736,
      0.0410187728703022,
      0.10860691964626312,
      0.06492043286561966,
      -0.009617824107408524,
      -0.051675014197826385,
      -0.30337074398994446,
      0.015039741061627865,
      -0.0170732531696558,
      0.045076873153448105,
      0.10369396954774857,
      0.0735010951757431,
      0.09858420491218567,
      -0.02158491499722004,
      -0.2630321979522705,
      0.061511531472206116,
      0.010039132088422775,
      0.028667669743299484,
      0.0896143764257431,
      0.09498870372772217,
      0.03206930682063103,
      -0.05660209432244301,
      -0.19561812281608582,
      0.042640313506126404,
      0.011087687686085701,
      0.06508718430995941,
      0.1424301266670227,
      0.03375387564301491,
      0.02874598652124405,
      0.002394796349108219,
      -0.15796878933906555,
      0.07524814456701279,
      0.10814894735813141,
      0.08754254877567291,
      0.11630809307098389,
      0.09392651170492172,
      -0.039614323526620865,
      -0.06723984330892563,
      -0.09844084084033966,
      0.10327189415693283,
      0.0662270337343216,
      0.06830129772424698,
      0.1328107863664627,
      0.09781567752361298,
      0.0512567013502121,
      -0.0453345850110054,
      -0.0106337396427989,
      0.027716346085071564,
      0.07016101479530334,
      -0.023674311116337776,
      0.03639836609363556,
      -0.1025528684258461,
      0.04668962210416794,
      0.010861246846616268,
      -0.019728582352399826,
      -0.03657199442386627,
      0.023371903225779533,
      -0.04587508365511894,
      -0.12388095259666443,
      -0.10932497680187225,
      -0.11144611239433289,
      -0.07578849792480469,
      0.003131893463432789,
      -0.020249785855412483,
      0.03590194508433342,
      -0.007056072354316711,
      -0.07316441088914871,
      0.0036794557236135006,
      0.029082419350743294,
      0.014355490915477276,
      -0.007803128566592932,
      -0.02967613935470581,
      0.06017922982573509,
      -0.1483459174633026,
      -0.03865949437022209,
      -0.08916530758142471,
      0.021446360275149345,
      -0.022458793595433235,
      -0.08325198292732239,
      0.000725032645277679,
      -0.23273290693759918,
      -0.023685995489358902,
      -0.015177834779024124,
      0.006944292224943638,
      -0.025158338248729706,
      -0.0060897646471858025,
      -0.0018581134499982,
      -0.04742904379963875,
      -0.11095472425222397,
      -0.027234679087996483,
      -0.0187014639377594,
      -0.010102638974785805,
      -0.011015299707651138,
      -0.05126885324716568,
      -0.02853694185614586,
      -0.06597547978162766,
      -0.016175586730241776,
      -0.02697182446718216,
      -0.04513448476791382,
      -0.03370986506342888,
      0.04035729542374611,
      -0.002471075626090169,
      0.052928436547517776,
      0.022868577390909195,
      -0.08806446939706802,
      0.08261723816394806,
      0.08563374727964401,
      0.04158017039299011,
      0.0772683322429657,
      0.010149969719350338,
      0.026834776625037193,
      0.04675024002790451,
      0.007577067706733942,
      -0.0019072777358815074,
      0.11673393100500107,
      0.014333656057715416,
      0.10042942315340042,
      0.20793387293815613,
      0.06891221553087234,
      0.02306906320154667,
      0.06587120145559311,
      0.026569005101919174,
      0.07025593519210815,
      0.009496178478002548,
      0.11866475641727448,
      0.09544431418180466,
      0.02913113869726658,
      0.02128586918115616,
      -0.040557753294706345,
      -0.012465259060263634,
      0.09829023480415344,
      -0.04613440856337547,
      0.15943458676338196,
      0.13214705884456635,
      -0.07746387273073196,
      0.04134983941912651,
      0.05656719580292702,
      0.04966461658477783,
      0.050337597727775574,
      0.03998387232422829,
      -0.025371085852384567,
      0.11419889330863953,
      -0.28719010949134827,
      0.08168821781873703,
      0.07063624262809753,
      0.02921874076128006,
      0.094239242374897,
      0.0012116851285099983,
      0.014812149107456207,
      0.11774321645498276,
      -0.3660823702812195,
      0.04489441215991974,
      0.06180478632450104,
      -0.0025495346635580063,
      0.1288042962551117,
      -0.023072954267263412,
      -0.016086895018815994,
      0.06520556658506393,
      -0.3109191358089447,
      -0.03197915107011795,
      0.02150452695786953,
      -0.11563568562269211,
      0.13699518144130707,
      -0.10751588642597198,
      0.060334060341119766,
      0.018253160640597343,
      -0.33016833662986755,
      -0.10798487812280655,
      -0.058131538331508636,
      -0.1791989952325821,
      0.06737468391656876,
      -0.1473822295665741,
      -0.006699594669044018,
      0.08016611635684967,
      -0.44575855135917664,
      -0.10442560911178589,
      0.042753297835588455,
      -0.15480594336986542,
      0.022775821387767792,
      -0.18093045055866241,
      -0.05081953480839729,
      0.18472373485565186,
      -0.35844990611076355,
      -0.14254072308540344,
      -0.0842520073056221,
      -0.09321793168783188,
      -0.004316392820328474,
      -0.09198079258203506,
      -0.1079149916768074,
      0.12152623385190964,
      -0.3111110329627991,
      -0.10781130939722061,
      -0.13366512954235077,
      -0.05807534605264664,
      -0.05368698015809059,
      -0.01964445784687996,
      -0.08480633050203323,
      0.1080874502658844,
      -0.21427689492702484,
      -0.00041197004611603916,
      0.04328213259577751,
      0.030140569433569908,
      0.05812205746769905,
      -0.010664699599146843,
      0.015827596187591553,
      0.17330807447433472,
      -0.18229295313358307,
      0.059386830776929855,
      -0.02168848179280758,
      0.02779221348464489,
      0.10299623757600784,
      0.003908936865627766,
      0.0712163895368576,
      0.06250250339508057,
      -0.12336578965187073,
      0.0005097883404232562,
      -0.02512582205235958,
      -0.00033765495754778385,
      0.048050787299871445,
      0.027851194143295288,
      0.0492687001824379,
      0.11472764611244202,
      -0.14727109670639038,
      0.045468270778656006,
      -0.03948511555790901,
      0.04492512345314026,
      0.08926480263471603,
      0.02771369367837906,
      -0.021958477795124054,
      0.05234402045607567,
      -0.22262270748615265,
      0.048785462975502014,
      0.01606054976582527,
      0.04849134013056755,
      0.1205214112997055,
      0.07934755831956863,
      -0.01746627315878868,
      -0.054496485739946365,
      -0.2070024013519287,
      0.06323510408401489,
      0.09920617938041687,
      0.07545279711484909,
      0.12752345204353333,
      0.10703355073928833,
      -0.0029444973915815353,
      -0.0245783980935812,
      -0.1897292286157608,
      0.11752868443727493,
      0.03263681009411812,
      0.038159169256687164,
      0.10527022927999496,
      0.11874373257160187,
      0.028035184368491173,
      -0.022997500374913216,
      -0.03481459990143776,
      0.10423753410577774,
      0.14480751752853394,
      0.06505026668310165,
      0.13531771302223206,
      -0.00886754784733057,
      0.05115293711423874,
      0.0009881890146061778,
      0.02084050141274929,
      -0.005953892599791288,
      -0.006290034390985966,
      0.019271958619356155,
      -0.04704611748456955,
      -0.06824669241905212,
      -0.0338379442691803,
      -0.025843510404229164,
      0.019158903509378433,
      -0.03623605892062187,
      0.04290938749909401,
      -0.005011209286749363,
      -0.02597278356552124,
      -0.023714248090982437,
      -0.029497243463993073,
      0.008466918021440506,
      -0.09119579941034317,
      -0.015979567542672157,
      -0.01970101334154606,
      -0.11312467604875565,
      -0.015602932311594486,
      -0.1281120926141739,
      -0.01007765531539917,
      0.011563163250684738,
      -0.09394536912441254,
      -0.029545258730649948,
      -0.07236014306545258,
      -0.06824646145105362,
      0.01586874946951866,
      -0.11210056394338608,
      0.036870405077934265,
      0.012094363570213318,
      -0.006313021294772625,
      -0.07496508210897446,
      -0.21405744552612305,
      -0.012371833436191082,
      0.05135497823357582,
      0.036035262048244476,
      0.022909754887223244,
      -0.00261870794929564,
      -0.048664748668670654,
      -0.04049256071448326,
      -0.05006439983844757,
      0.00792504008859396,
      -0.007884170860052109,
      -0.010501030832529068,
      0.13295601308345795,
      0.06300155818462372,
      -0.1094106137752533,
      0.0616648904979229,
      -0.017906658351421356,
      0.070840023458004,
      0.08064360171556473,
      0.035712432116270065,
      0.06398667395114899,
      0.05580531060695648,
      -0.1476331353187561,
      0.0363648496568203,
      0.011820736341178417,
      0.07201776653528214,
      0.09071341902017593,
      0.026518985629081726,
      0.09512007236480713,
      0.1307765692472458,
      -0.13981792330741882,
      0.03592706844210625,
      0.003258433425799012,
      -0.025686824694275856,
      0.07986067980527878,
      -0.004218420945107937,
      0.09128721803426743,
      0.10352852195501328,
      -0.0995650365948677,
      0.045368291437625885,
      0.009047901257872581,
      0.073052778840065,
      0.1700744330883026,
      0.022654857486486435,
      0.12229091674089432,
      0.11908342689275742,
      -0.16372454166412354,
      0.07443074136972427,
      0.022377338260412216,
      0.055250611156225204,
      0.08840268850326538,
      0.019269609823822975,
      0.0030888698529452085,
      0.13703656196594238,
      -0.22685566544532776,
      0.0821688249707222,
      0.01228803489357233,
      0.02373935468494892,
      0.14362992346286774,
      0.02684851363301277,
      0.08335592597723007,
      0.11264238506555557,
      -0.2943882942199707,
      0.0043960134498775005,
      -0.07108541578054428,
      -0.048846181482076645,
      0.14978954195976257,
      -0.01859983615577221,
      0.03263848274946213,
      0.10033676773309708,
      -0.2525312900543213,
      -0.03809385746717453,
      -0.004900858737528324,
      -0.11365935951471329,
      0.14450408518314362,
      -0.1294216364622116,
      0.11375949531793594,
      0.10354537516832352,
      -0.35587772727012634,
      -0.11314910650253296,
      -0.14550404250621796,
      -0.16319014132022858,
      -0.03451283648610115,
      -0.1664961725473404,
      -0.03865644335746765,
      0.049407489597797394,
      -0.3109753727912903,
      -0.0837443545460701,
      -0.13301897048950195,
      -0.19641342759132385,
      0.03816713020205498,
      -0.18046902120113373,
      -0.007955139502882957,
      0.21960024535655975,
      -0.1631287932395935,
      -0.12949839234352112,
      -0.025920787826180458,
      -0.20020340383052826,
      0.014462216757237911,
      -0.18578507006168365,
      -0.11635147035121918,
      0.2157684564590454,
      -0.0715087279677391,
      -0.11862717568874359,
      -0.07014257460832596,
      -0.034945517778396606,
      0.003615344176068902,
      -0.06608695536851883,
      -0.1385284811258316,
      0.11772961914539337,
      -0.08116761595010757,
      0.029696447774767876,
      0.014507458545267582,
      -0.011108359321951866,
      0.06246474012732506,
      0.013804210349917412,
      0.05429590493440628,
      0.08901049196720123,
      -0.10086926817893982,
      -0.03352118283510208,
      -0.09955579787492752,
      -0.007336821407079697,
      0.06386810541152954,
      0.03303639963269234,
      0.09343337267637253,
      0.07190151512622833,
      -0.04173783212900162,
      0.017000431194901466,
      -0.010966361500322819,
      0.03202560916543007,
      0.03702792152762413,
      -0.00036090301000513136,
      0.06897518038749695,
      0.045201338827610016,
      -0.022437814623117447,
      0.06994849443435669,
      0.0018471642397344112,
      0.09944339096546173,
      -0.0061342306435108185,
      0.04757683724164963,
      0.026329796761274338,
      -0.0039643035270273685,
      -0.180891215801239,
      0.046300455927848816,
      0.006038669031113386,
      0.06425053626298904,
      0.08374451100826263,
      0.08924760669469833,
      0.03958965837955475,
      -0.009146653115749359,
      -0.16309696435928345,
      0.0935620665550232,
      0.07970372587442398,
      0.08726440370082855,
      0.10187605768442154,
      0.11540958285331726,
      0.06934670358896255,
      0.01588638685643673,
      -0.14982634782791138,
      0.11505098640918732,
      0.04677196964621544,
      0.09039212018251419,
      0.12045132368803024,
      0.12124092131853104,
      0.048286404460668564,
      -0.06054326891899109,
      -0.054682157933712006,
      0.15527284145355225,
      0.08672676980495453,
      0.0861600711941719,
      0.12469834089279175,
      0.03778024762868881,
      0.08913441747426987,
      0.02886369079351425,
      -0.10426588356494904,
      -0.03188471123576164,
      -0.008747881278395653,
      -0.10540057718753815,
      -0.03928559646010399,
      -0.044960808008909225,
      0.05856246501207352,
      0.026201320812106133,
      -0.024031251668930054,
      0.00030107086058706045,
      0.014666038565337658,
      -0.045914195477962494,
      -0.03290363773703575,
      -0.05321493744850159,
      -0.033752672374248505,
      0.0054949200712144375,
      -0.0300411619246006,
      -0.013107487931847572,
      -0.1736261546611786,
      -0.1489853411912918,
      -0.050421491265296936,
      -0.15399117767810822,
      0.03403420373797417,
      0.02538582868874073,
      0.030318178236484528,
      -0.10232033580541611,
      -0.0652187168598175,
      -0.10496177524328232,
      -0.055125582963228226,
      -0.11841514706611633,
      -0.01915699988603592,
      0.0005369035061448812,
      0.036633096635341644,
      -0.05465451255440712,
      -0.05264849588274956,
      -0.03086501732468605,
      0.07058253139257431,
      -0.025655727833509445,
      -0.0014806609833613038,
      -0.03251540660858154,
      -0.01802702806890011,
      0.04472775384783745,
      0.06322582066059113,
      0.0841437503695488,
      0.12303543090820312,
      0.015554769895970821,
      0.15478862822055817,
      0.014510049484670162,
      -0.1360226720571518,
      0.03325599431991577,
      0.026103157550096512,
      0.020995723083615303,
      0.12331249564886093,
      0.03881935030221939,
      0.1643899530172348,
      0.11832255870103836,
      -0.21805186569690704,
      0.05371202901005745,
      -0.09340803325176239,
      0.089578777551651,
      0.1625889241695404,
      0.08266613632440567,
      0.15004479885101318,
      0.13475367426872253,
      -0.2239435911178589,
      0.04828851297497749,
      0.0665971040725708,
      0.03458094224333763,
      0.08975265175104141,
      0.052858445793390274,
      0.1045691967010498,
      0.14352071285247803,
      -0.1805700808763504,
      0.08315873891115189,
      0.0817437544465065,
      0.0169843677431345,
      0.17417693138122559,
      0.03498421981930733,
      0.14843781292438507,
      0.038657672703266144,
      -0.2186826765537262,
      0.07010169327259064,
      0.01077197678387165,
      0.05540468543767929,
      0.08022094517946243,
      0.07268574088811874,
      0.023226799443364143,
      0.14922305941581726,
      -0.29819896817207336,
      0.050633784383535385,
      0.03476763516664505,
      0.008333253674209118,
      0.1342676281929016,
      0.031209759414196014,
      0.00993424654006958,
      0.06726884096860886,
      -0.3105514943599701,
      -0.02383444458246231,
      -0.005880675278604031,
      -0.05412233620882034,
      0.16515186429023743,
      -0.025206083431839943,
      0.08503108471632004,
      0.04243846610188484,
      -0.3429396450519562,
      0.003906672820448875,
      -0.02679300867021084,
      -0.09747891128063202,
      0.11899575591087341,
      -0.09337436407804489,
      0.18475401401519775,
      0.15062569081783295,
      -0.21489547193050385,
      -0.05337890610098839,
      -0.1232994869351387,
      -0.17058216035366058,
      -0.04404653608798981,
      -0.14328108727931976,
      -0.015501159243285656,
      0.19571520388126373,
      -0.0026806427631527185,
      -0.05151717737317085,
      -0.24689333140850067,
      -0.14691293239593506,
      0.04765120521187782,
      -0.11056389659643173,
      -0.08014532178640366,
      0.2680163085460663,
      0.009609916247427464,
      -0.0981450304389,
      -0.04984157532453537,
      -0.1472131609916687,
      -0.025664880871772766,
      -0.16326884925365448,
      -0.1496123969554901,
      0.1665991246700287,
      -0.056875079870224,
      -0.06279870867729187,
      0.0036496983375400305,
      -0.059428393840789795,
      -0.006937707774341106,
      -0.10293283313512802,
      -0.05453891307115555,
      0.13758979737758636,
      -0.1066652238368988,
      0.015316570177674294,
      -0.0699688047170639,
      0.03130790963768959,
      0.04089939966797829,
      -0.01933036930859089,
      -0.006682792212814093,
      0.13088993728160858,
      -0.15467926859855652,
      -0.00416985247284174,
      0.013093694113194942,
      -0.027799103409051895,
      -0.009981772862374783,
      -0.025572234764695168,
      -0.023144982755184174,
      -0.0031723787542432547,
      -0.08142737299203873,
      -0.010697904042899609,
      0.022281283512711525,
      0.07382401823997498,
      0.03264991566538811,
      -0.0005995139363221824,
      0.12977895140647888,
      0.04551578313112259,
      -0.08275800198316574,
      0.01611250452697277,
      0.02155720628798008,
      0.01937856152653694,
      0.02813962660729885,
      0.027273207902908325,
      0.0846773236989975,
      0.08193664997816086,
      -0.15796925127506256,
      0.009239010512828827,
      0.050929099321365356,
      0.05146467685699463,
      0.10883858054876328,
      0.03600168228149414,
      0.06072885915637016,
      0.02868739329278469,
      -0.30658596754074097,
      0.06631080061197281,
      0.07346832752227783,
      0.06662525981664658,
      0.057677749544382095,
      0.07360464334487915,
      0.05317261815071106,
      0.08807359635829926,
      -0.21293242275714874,
      0.07087104022502899,
      0.07046908885240555,
      0.10507575422525406,
      0.12698949873447418,
      0.1128654032945633,
      0.10827285796403885,
      0.02878461591899395,
      -0.2167791724205017,
      0.05758926272392273,
      0.05679967626929283,
      0.011655731126666069,
      0.156609907746315,
      0.015623501501977444,
      0.18928968906402588,
      0.14353744685649872,
      -0.07968536764383316,
      -0.15661247074604034,
      -0.08372828364372253,
      -0.20742496848106384,
      -0.08299420028924942,
      -0.11493755131959915,
      -0.02360658533871174,
      0.02094525843858719,
      0.01404859684407711,
      0.006132890935987234,
      -0.03568537160754204,
      -0.09796207398176193,
      -0.04792911559343338,
      -0.09306148439645767,
      0.009322826750576496,
      0.0259646438062191,
      0.00484253978356719,
      -0.02869071625173092,
      -0.21947596967220306,
      -0.17137375473976135,
      -0.019656095653772354,
      -0.1250426024198532,
      0.034428734332323074,
      0.015558583661913872,
      0.0024856184609234333,
      -0.10779893398284912,
      -0.1730692833662033,
      -0.07121547311544418,
      -0.10625051707029343,
      -0.053499430418014526,
      -0.001977805979549885,
      -0.05574773997068405,
      0.037566374987363815,
      -0.01843538135290146,
      0.03512226790189743,
      -0.0010019071632996202,
      0.11216344684362411,
      -0.014186928048729897,
      0.026904162019491196,
      -0.026034792885184288,
      -0.02981432154774666,
      0.07933299243450165,
      0.00205825362354517,
      0.0353807769715786,
      0.05089331790804863,
      0.08441240340471268,
      0.11141902208328247,
      -0.0071025206707417965,
      -0.09813258051872253,
      0.03344167768955231,
      0.045101284980773926,
      0.03036181628704071,
      0.13069003820419312,
      0.026750538498163223,
      0.15200933814048767,
      0.06950429081916809,
      -0.1905973255634308,
      0.07821840792894363,
      -0.079909548163414,
      0.060005173087120056,
      0.17494341731071472,
      0.07846656441688538,
      0.006215193308889866,
      0.12771902978420258,
      -0.24294458329677582,
      0.061780452728271484,
      -0.005601938348263502,
      0.08433444797992706,
      0.1500634253025055,
      0.08051241189241409,
      0.05256032571196556,
      0.11330664902925491,
      -0.24872396886348724,
      0.058993950486183167,
      -0.016440773382782936,
      0.09728101640939713,
      0.16784898936748505,
      0.06305469572544098,
      0.07110800594091415,
      0.18535417318344116,
      -0.25894439220428467,
      0.1327873319387436,
      0.04228100925683975,
      0.05134323611855507,
      0.11426441371440887,
      0.07876236736774445,
      -0.06332724541425705,
      0.11601603031158447,
      -0.22404853999614716,
      0.09252748638391495,
      0.04322294145822525,
      0.008914533071219921,
      0.07364870607852936,
      0.06837024539709091,
      -0.031073926016688347,
      0.03799518197774887,
      -0.15227530896663666,
      0.08000118285417557,
      -0.01213998906314373,
      -0.014059863984584808,
      0.10687828809022903,
      -0.03083743527531624,
      0.09216304123401642,
      -0.004519673064351082,
      -0.13184836506843567,
      -0.020875563845038414,
      -0.11414244771003723,
      -0.06847116351127625,
      0.09785167872905731,
      -0.0740140751004219,
      0.10937044769525528,
      0.27382075786590576,
      -0.058806825429201126,
      -0.1061958596110344,
      -0.1858169436454773,
      -0.15869873762130737,
      -0.07682740688323975,
      -0.12222785502672195,
      -0.12221332639455795,
      0.16644902527332306,
      0.020270036533474922,
      -0.02194216474890709,
      -0.1334591805934906,
      -0.06663987040519714,
      -0.0980360358953476,
      -0.06311719119548798,
      -0.12282495945692062,
      0.13307470083236694,
      -0.03231285512447357,
      -0.042209427803754807,
      -0.1126660406589508,
      -0.05559414252638817,
      -0.07435902953147888,
      -0.08440522104501724,
      -0.1001502275466919,
      0.17016902565956116,
      -0.06273716688156128,
      -0.05254676565527916,
      -0.06739272177219391,
      -0.04337845370173454,
      0.008596029132604599,
      -0.09038276970386505,
      -0.07564239948987961,
      0.16465994715690613,
      -0.13130129873752594,
      -0.006927915848791599,
      -0.013637864962220192,
      -0.021675117313861847,
      -0.06393525749444962,
      -0.009476561099290848,
      -0.00555908028036356,
      0.1232164278626442,
      -0.05911347642540932,
      -0.018918870016932487,
      -0.038767434656620026,
      -0.003131732577458024,
      0.0063500483520329,
      -0.06274446845054626,
      0.01722089946269989,
      -0.00438450975343585,
      -0.03488759696483612,
      0.040073737502098083,
      -0.027011744678020477,
      0.03321443498134613,
      0.08167637884616852,
      0.04074249789118767,
      0.08066000044345856,
      0.16887851059436798,
      -0.1697923243045807,
      0.03241441771388054,
      0.033759646117687225,
      0.06621639430522919,
      0.04030973091721535,
      0.02366139180958271,
      0.04454685375094414,
      0.11470483988523483,
      -0.197730153799057,
      0.01659023016691208,
      0.05903053656220436,
      0.06528220325708389,
      0.0553811751306057,
      0.05862687900662422,
      0.020557574927806854,
      0.07096952199935913,
      -0.1551208794116974,
      0.05446391925215721,
      0.0346982516348362,
      0.06722848862409592,
      0.0339173786342144,
      0.0428166463971138,
      0.007553470320999622,
      0.0414152592420578,
      -0.20730742812156677,
      0.07492923736572266,
      0.056891266256570816,
      0.04239293560385704,
      0.14014269411563873,
      0.10052952915430069,
      0.05673927813768387,
      0.0651417076587677,
      -0.12868700921535492,
      -0.004578647669404745,
      -0.0016373140970245004,
      -0.05936424806714058,
      0.0767659991979599,
      -0.03165626898407936,
      0.06852740049362183,
      0.08663282543420792,
      -0.018095454201102257,
      -0.12888379395008087,
      -0.038014963269233704,
      -0.07817523181438446,
      -0.05878591164946556,
      -0.14952205121517181,
      -0.0946822389960289,
      -0.019179129973053932,
      0.010550583712756634,
      0.011742733418941498,
      -0.005401870235800743,
      -0.07913365960121155,
      -0.014896144159138203,
      -0.07000192254781723,
      0.012089506722986698,
      0.007838534191250801,
      -0.02451220341026783,
      -0.057692281901836395,
      -0.1179104670882225,
      -0.19759497046470642,
      -0.029140179976820946,
      -0.10772382467985153,
      -0.005292069632560015,
      0.040179990231990814,
      0.06578924506902695,
      -0.09451267123222351,
      -0.03719351068139076,
      -0.027992116287350655,
      -0.07721235603094101,
      -0.011642909608781338,
      0.021092116832733154,
      -0.000320822378853336,
      -0.06093206629157066,
      -0.08165986090898514,
      0.08709286153316498,
      0.04155759513378143,
      0.040114324539899826,
      -0.02331100031733513,
      0.03887050226330757,
      -0.01869363710284233,
      -0.14198102056980133,
      0.02392420545220375,
      -0.024085797369480133,
      0.042416997253894806,
      0.08233600109815598,
      0.07866237312555313,
      0.150156632065773,
      0.08076977729797363,
      -0.2167828381061554,
      0.01666468195617199,
      -0.0030561143066734076,
      0.04079998657107353,
      0.07747849822044373,
      0.031701814383268356,
      0.08339988440275192,
      0.16622823476791382,
      -0.17095720767974854,
      0.04752165079116821,
      0.04545730724930763,
      0.024502307176589966,
      0.07242342084646225,
      0.01832553930580616,
      -0.08989456295967102,
      0.06194458529353142,
      -0.18868295848369598,
      0.04756343364715576,
      -0.03598414734005928,
      0.07099451124668121,
      0.13074003159999847,
      0.09355410188436508,
      0.030111515894532204,
      -0.108191579580307,
      -0.22932474315166473,
      0.06377368420362473,
      -0.07395486533641815,
      0.0769079178571701,
      0.17123715579509735,
      0.11197025328874588,
      0.034057341516017914,
      -0.011253660544753075,
      -0.24147550761699677,
      0.12729285657405853,
      -0.039470329880714417,
      0.10151493549346924,
      0.07073855400085449,
      0.10214092582464218,
      -0.04233425483107567,
      0.08969220519065857,
      -0.177577406167984,
      0.1212603822350502,
      0.031184833496809006,
      0.01936633698642254,
      0.11808514595031738,
      0.055943846702575684,
      0.06937678158283234,
      0.11957938224077225,
      -0.17024098336696625,
      0.09975933283567429,
      -0.03877030685544014,
      -0.021955087780952454,
      0.14273352921009064,
      -0.023554012179374695,
      0.07087136805057526,
      0.1220473125576973,
      -0.168452650308609,
      -0.033276960253715515,
      -0.03706081584095955,
      -0.08004685491323471,
      0.09055639803409576,
      -0.08356893807649612,
      0.04381466656923294,
      0.17961297929286957,
      -0.11920908093452454,
      -0.08278419077396393,
      -0.11323879659175873,
      -0.10555946826934814,
      -0.02545780874788761,
      -0.12640056014060974,
      -0.12998905777931213,
      0.1344470977783203,
      -0.06517665833234787,
      -0.08154576271772385,
      -0.1304352879524231,
      -0.06019233167171478,
      -0.030683979392051697,
      -0.07860668003559113,
      -0.04076731950044632,
      0.1922808438539505,
      -0.04512019082903862,
      -0.011247420683503151,
      -0.12463322281837463,
      -0.017797842621803284,
      -0.08508307486772537,
      -0.04311203956604004,
      -0.09029718488454819,
      0.13888750970363617,
      0.013051706366240978,
      -0.018705250695347786,
      -0.0324685201048851,
      0.03424576297402382,
      0.04407781735062599,
      -0.0359310545027256,
      0.07269114255905151,
      0.039739806205034256,
      0.03356044366955757,
      -0.0731031596660614,
      0.02295893058180809,
      -0.02752094157040119,
      -0.06479865312576294,
      -0.05433833599090576,
      0.09951023012399673,
